digraph Tree {
node [shape=box, style="filled", color="black", fontname="helvetica"] ;
edge [fontname="helvetica"] ;
0 [label=<same_srv_rate &le; 0.495<br/>entropy = 1.807<br/>samples = 100778<br/>value = [771, 21, 8, 42, 10, 2866, 15, 9, 7, 32986, 1180<br/>53921, 2, 3, 158, 2358, 9, 2895, 2112, 1, 704, 688<br/>12]>, fillcolor="#c2e8f7"] ;
1 [label=<dst_host_diff_srv_rate &le; 0.155<br/>entropy = 0.69<br/>samples = 36438<br/>value = [0, 2, 0, 0, 0, 2, 1, 0, 0, 32178, 7, 1433, 0<br/>0, 0, 381, 0, 2356, 0, 0, 78, 0, 0]>, fillcolor="#52e8c3"] ;
0 -> 1 [labeldistance=2.5, labelangle=45, headlabel="True"] ;
2 [label=<flag_SF &le; 0.5<br/>entropy = 0.272<br/>samples = 33355<br/>value = [0, 2, 0, 0, 0, 2, 1, 0, 0, 32064, 1, 1046, 0<br/>0, 0, 100, 0, 139, 0, 0, 0, 0, 0]>, fillcolor="#41e6bd"] ;
1 -> 2 ;
3 [label=<diff_srv_rate &le; 0.365<br/>entropy = 0.05<br/>samples = 32216<br/>value = [0, 1, 0, 0, 0, 0, 1, 0, 0, 32063, 0, 27, 0<br/>0, 0, 100, 0, 24, 0, 0, 0, 0, 0]>, fillcolor="#3ae5ba"] ;
2 -> 3 ;
4 [label=<dst_host_same_srv_rate &le; 0.72<br/>entropy = 0.007<br/>samples = 31897<br/>value = [0, 1, 0, 0, 0, 0, 1, 0, 0, 31880, 0, 15, 0<br/>0, 0, 0, 0, 0, 0, 0, 0, 0, 0]>, fillcolor="#39e5ba"] ;
3 -> 4 ;
5 [label=<duration &le; 0.026<br/>entropy = 0.001<br/>samples = 31872<br/>value = [0, 0, 0, 0, 0, 0, 0, 0, 0, 31869, 0, 3, 0, 0<br/>0, 0, 0, 0, 0, 0, 0, 0, 0]>, fillcolor="#39e5ba"] ;
4 -> 5 ;
6 [label=<entropy = 0.0<br/>samples = 31869<br/>value = [0, 0, 0, 0, 0, 0, 0, 0, 0, 31869, 0, 0, 0, 0<br/>0, 0, 0, 0, 0, 0, 0, 0, 0]>, fillcolor="#39e5ba"] ;
5 -> 6 ;
7 [label=<entropy = 0.0<br/>samples = 3<br/>value = [0, 0, 0, 0, 0, 0, 0, 0, 0, 0, 0, 3, 0, 0<br/>0, 0, 0, 0, 0, 0, 0, 0, 0]>, fillcolor="#39b4e5"] ;
5 -> 7 ;
8 [label=<dst_host_srv_count &le; 0.094<br/>entropy = 1.401<br/>samples = 25<br/>value = [0, 1, 0, 0, 0, 0, 1, 0, 0, 11, 0, 12, 0, 0<br/>0, 0, 0, 0, 0, 0, 0, 0, 0]>, fillcolor="#f1fafd"] ;
4 -> 8 ;
9 [label=<service_private &le; 0.5<br/>entropy = 0.773<br/>samples = 13<br/>value = [0, 1, 0, 0, 0, 0, 1, 0, 0, 11, 0, 0, 0, 0<br/>0, 0, 0, 0, 0, 0, 0, 0, 0]>, fillcolor="#5ae9c6"] ;
8 -> 9 ;
10 [label=<dst_host_rerror_rate &le; 0.085<br/>entropy = 1.0<br/>samples = 2<br/>value = [0, 1, 0, 0, 0, 0, 1, 0, 0, 0, 0, 0, 0, 0<br/>0, 0, 0, 0, 0, 0, 0, 0, 0]>, fillcolor="#ffffff"] ;
9 -> 10 ;
11 [label=<entropy = 0.0<br/>samples = 1<br/>value = [0, 0, 0, 0, 0, 0, 1, 0, 0, 0, 0, 0, 0, 0<br/>0, 0, 0, 0, 0, 0, 0, 0, 0]>, fillcolor="#3fe539"] ;
10 -> 11 ;
12 [label=<entropy = 0.0<br/>samples = 1<br/>value = [0, 1, 0, 0, 0, 0, 0, 0, 0, 0, 0, 0, 0, 0<br/>0, 0, 0, 0, 0, 0, 0, 0, 0]>, fillcolor="#e5ac39"] ;
10 -> 12 ;
13 [label=<entropy = 0.0<br/>samples = 11<br/>value = [0, 0, 0, 0, 0, 0, 0, 0, 0, 11, 0, 0, 0, 0<br/>0, 0, 0, 0, 0, 0, 0, 0, 0]>, fillcolor="#39e5ba"] ;
9 -> 13 ;
14 [label=<entropy = 0.0<br/>samples = 12<br/>value = [0, 0, 0, 0, 0, 0, 0, 0, 0, 0, 0, 12, 0, 0<br/>0, 0, 0, 0, 0, 0, 0, 0, 0]>, fillcolor="#39b4e5"] ;
8 -> 14 ;
15 [label=<dst_host_serror_rate &le; 0.74<br/>entropy = 1.443<br/>samples = 319<br/>value = [0, 0, 0, 0, 0, 0, 0, 0, 0, 183, 0, 12, 0, 0<br/>0, 100, 0, 24, 0, 0, 0, 0, 0]>, fillcolor="#b4f5e5"] ;
3 -> 15 ;
16 [label=<diff_srv_rate &le; 0.69<br/>entropy = 1.077<br/>samples = 136<br/>value = [0, 0, 0, 0, 0, 0, 0, 0, 0, 0, 0, 12, 0, 0<br/>0, 100, 0, 24, 0, 0, 0, 0, 0]>, fillcolor="#9d79ed"] ;
15 -> 16 ;
17 [label=<count &le; 0.013<br/>entropy = 0.353<br/>samples = 105<br/>value = [0, 0, 0, 0, 0, 0, 0, 0, 0, 0, 0, 7, 0, 0<br/>0, 98, 0, 0, 0, 0, 0, 0, 0]>, fillcolor="#7947e7"] ;
16 -> 17 ;
18 [label=<dst_host_same_srv_rate &le; 0.03<br/>entropy = 0.996<br/>samples = 13<br/>value = [0, 0, 0, 0, 0, 0, 0, 0, 0, 0, 0, 7, 0, 0<br/>0, 6, 0, 0, 0, 0, 0, 0, 0]>, fillcolor="#e3f4fb"] ;
17 -> 18 ;
19 [label=<flag_S1 &le; 0.5<br/>entropy = 0.592<br/>samples = 7<br/>value = [0, 0, 0, 0, 0, 0, 0, 0, 0, 0, 0, 1, 0, 0<br/>0, 6, 0, 0, 0, 0, 0, 0, 0]>, fillcolor="#875ae9"] ;
18 -> 19 ;
20 [label=<entropy = 0.0<br/>samples = 6<br/>value = [0, 0, 0, 0, 0, 0, 0, 0, 0, 0, 0, 0, 0, 0<br/>0, 6, 0, 0, 0, 0, 0, 0, 0]>, fillcolor="#6f39e5"] ;
19 -> 20 ;
21 [label=<entropy = 0.0<br/>samples = 1<br/>value = [0, 0, 0, 0, 0, 0, 0, 0, 0, 0, 0, 1, 0, 0<br/>0, 0, 0, 0, 0, 0, 0, 0, 0]>, fillcolor="#39b4e5"] ;
19 -> 21 ;
22 [label=<entropy = 0.0<br/>samples = 6<br/>value = [0, 0, 0, 0, 0, 0, 0, 0, 0, 0, 0, 6, 0, 0<br/>0, 0, 0, 0, 0, 0, 0, 0, 0]>, fillcolor="#39b4e5"] ;
18 -> 22 ;
23 [label=<entropy = 0.0<br/>samples = 92<br/>value = [0, 0, 0, 0, 0, 0, 0, 0, 0, 0, 0, 0, 0, 0<br/>0, 92, 0, 0, 0, 0, 0, 0, 0]>, fillcolor="#6f39e5"] ;
17 -> 23 ;
24 [label=<src_bytes &le; 0.0<br/>entropy = 0.966<br/>samples = 31<br/>value = [0, 0, 0, 0, 0, 0, 0, 0, 0, 0, 0, 5, 0, 0<br/>0, 2, 0, 24, 0, 0, 0, 0, 0]>, fillcolor="#d96eec"] ;
16 -> 24 ;
25 [label=<count &le; 0.007<br/>entropy = 0.391<br/>samples = 26<br/>value = [0, 0, 0, 0, 0, 0, 0, 0, 0, 0, 0, 0, 0, 0<br/>0, 2, 0, 24, 0, 0, 0, 0, 0]>, fillcolor="#cf49e7"] ;
24 -> 25 ;
26 [label=<dst_host_same_src_port_rate &le; 0.005<br/>entropy = 1.0<br/>samples = 4<br/>value = [0, 0, 0, 0, 0, 0, 0, 0, 0, 0, 0, 0, 0, 0<br/>0, 2, 0, 2, 0, 0, 0, 0, 0]>, fillcolor="#ffffff"] ;
25 -> 26 ;
27 [label=<entropy = 0.0<br/>samples = 2<br/>value = [0, 0, 0, 0, 0, 0, 0, 0, 0, 0, 0, 0, 0, 0<br/>0, 0, 0, 2, 0, 0, 0, 0, 0]>, fillcolor="#cb39e5"] ;
26 -> 27 ;
28 [label=<entropy = 0.0<br/>samples = 2<br/>value = [0, 0, 0, 0, 0, 0, 0, 0, 0, 0, 0, 0, 0, 0<br/>0, 2, 0, 0, 0, 0, 0, 0, 0]>, fillcolor="#6f39e5"] ;
26 -> 28 ;
29 [label=<entropy = 0.0<br/>samples = 22<br/>value = [0, 0, 0, 0, 0, 0, 0, 0, 0, 0, 0, 0, 0, 0<br/>0, 0, 0, 22, 0, 0, 0, 0, 0]>, fillcolor="#cb39e5"] ;
25 -> 29 ;
30 [label=<entropy = 0.0<br/>samples = 5<br/>value = [0, 0, 0, 0, 0, 0, 0, 0, 0, 0, 0, 5, 0, 0<br/>0, 0, 0, 0, 0, 0, 0, 0, 0]>, fillcolor="#39b4e5"] ;
24 -> 30 ;
31 [label=<entropy = 0.0<br/>samples = 183<br/>value = [0, 0, 0, 0, 0, 0, 0, 0, 0, 183, 0, 0, 0, 0<br/>0, 0, 0, 0, 0, 0, 0, 0, 0]>, fillcolor="#39e5ba"] ;
15 -> 31 ;
32 [label=<dst_host_rerror_rate &le; 0.015<br/>entropy = 0.521<br/>samples = 1139<br/>value = [0, 1, 0, 0, 0, 2, 0, 0, 0, 1, 1, 1019, 0, 0<br/>0, 0, 0, 115, 0, 0, 0, 0, 0]>, fillcolor="#50bde8"] ;
2 -> 32 ;
33 [label=<dst_host_same_src_port_rate &le; 0.96<br/>entropy = 0.318<br/>samples = 1065<br/>value = [0, 1, 0, 0, 0, 1, 0, 0, 0, 0, 1, 1009, 0, 0<br/>0, 0, 0, 53, 0, 0, 0, 0, 0]>, fillcolor="#44b8e6"] ;
32 -> 33 ;
34 [label=<difficulty &le; 0.738<br/>entropy = 0.127<br/>samples = 1022<br/>value = [0, 1, 0, 0, 0, 0, 0, 0, 0, 0, 0, 1005, 0, 0<br/>0, 0, 0, 16, 0, 0, 0, 0, 0]>, fillcolor="#3cb5e5"] ;
33 -> 34 ;
35 [label=<same_srv_rate &le; 0.11<br/>entropy = 0.858<br/>samples = 73<br/>value = [0, 1, 0, 0, 0, 0, 0, 0, 0, 0, 0, 56, 0, 0<br/>0, 0, 0, 16, 0, 0, 0, 0, 0]>, fillcolor="#74caed"] ;
34 -> 35 ;
36 [label=<logged_in &le; 0.5<br/>entropy = 0.569<br/>samples = 63<br/>value = [0, 1, 0, 0, 0, 0, 0, 0, 0, 0, 0, 56, 0, 0<br/>0, 0, 0, 6, 0, 0, 0, 0, 0]>, fillcolor="#51bde8"] ;
35 -> 36 ;
37 [label=<dst_host_srv_count &le; 0.016<br/>entropy = 0.954<br/>samples = 16<br/>value = [0, 0, 0, 0, 0, 0, 0, 0, 0, 0, 0, 10, 0, 0<br/>0, 0, 0, 6, 0, 0, 0, 0, 0]>, fillcolor="#b0e1f5"] ;
36 -> 37 ;
38 [label=<entropy = 0.0<br/>samples = 10<br/>value = [0, 0, 0, 0, 0, 0, 0, 0, 0, 0, 0, 10, 0, 0<br/>0, 0, 0, 0, 0, 0, 0, 0, 0]>, fillcolor="#39b4e5"] ;
37 -> 38 ;
39 [label=<entropy = 0.0<br/>samples = 6<br/>value = [0, 0, 0, 0, 0, 0, 0, 0, 0, 0, 0, 0, 0, 0<br/>0, 0, 0, 6, 0, 0, 0, 0, 0]>, fillcolor="#cb39e5"] ;
37 -> 39 ;
40 [label=<num_file_creations &le; 0.013<br/>entropy = 0.149<br/>samples = 47<br/>value = [0, 1, 0, 0, 0, 0, 0, 0, 0, 0, 0, 46, 0, 0<br/>0, 0, 0, 0, 0, 0, 0, 0, 0]>, fillcolor="#3db6e6"] ;
36 -> 40 ;
41 [label=<entropy = 0.0<br/>samples = 46<br/>value = [0, 0, 0, 0, 0, 0, 0, 0, 0, 0, 0, 46, 0, 0<br/>0, 0, 0, 0, 0, 0, 0, 0, 0]>, fillcolor="#39b4e5"] ;
40 -> 41 ;
42 [label=<entropy = 0.0<br/>samples = 1<br/>value = [0, 1, 0, 0, 0, 0, 0, 0, 0, 0, 0, 0, 0, 0<br/>0, 0, 0, 0, 0, 0, 0, 0, 0]>, fillcolor="#e5ac39"] ;
40 -> 42 ;
43 [label=<entropy = 0.0<br/>samples = 10<br/>value = [0, 0, 0, 0, 0, 0, 0, 0, 0, 0, 0, 0, 0, 0<br/>0, 0, 0, 10, 0, 0, 0, 0, 0]>, fillcolor="#cb39e5"] ;
35 -> 43 ;
44 [label=<entropy = 0.0<br/>samples = 949<br/>value = [0, 0, 0, 0, 0, 0, 0, 0, 0, 0, 0, 949, 0, 0<br/>0, 0, 0, 0, 0, 0, 0, 0, 0]>, fillcolor="#39b4e5"] ;
34 -> 44 ;
45 [label=<dst_host_same_srv_rate &le; 0.68<br/>entropy = 0.758<br/>samples = 43<br/>value = [0, 0, 0, 0, 0, 1, 0, 0, 0, 0, 1, 4, 0, 0<br/>0, 0, 0, 37, 0, 0, 0, 0, 0]>, fillcolor="#d357e9"] ;
33 -> 45 ;
46 [label=<entropy = 0.0<br/>samples = 37<br/>value = [0, 0, 0, 0, 0, 0, 0, 0, 0, 0, 0, 0, 0, 0<br/>0, 0, 0, 37, 0, 0, 0, 0, 0]>, fillcolor="#cb39e5"] ;
45 -> 46 ;
47 [label=<dst_host_srv_diff_host_rate &le; 0.125<br/>entropy = 1.252<br/>samples = 6<br/>value = [0, 0, 0, 0, 0, 1, 0, 0, 0, 0, 1, 4, 0, 0<br/>0, 0, 0, 0, 0, 0, 0, 0, 0]>, fillcolor="#88d2ef"] ;
45 -> 47 ;
48 [label=<entropy = 0.0<br/>samples = 4<br/>value = [0, 0, 0, 0, 0, 0, 0, 0, 0, 0, 0, 4, 0, 0<br/>0, 0, 0, 0, 0, 0, 0, 0, 0]>, fillcolor="#39b4e5"] ;
47 -> 48 ;
49 [label=<srv_diff_host_rate &le; 0.5<br/>entropy = 1.0<br/>samples = 2<br/>value = [0, 0, 0, 0, 0, 1, 0, 0, 0, 0, 1, 0, 0, 0<br/>0, 0, 0, 0, 0, 0, 0, 0, 0]>, fillcolor="#ffffff"] ;
47 -> 49 ;
50 [label=<entropy = 0.0<br/>samples = 1<br/>value = [0, 0, 0, 0, 0, 1, 0, 0, 0, 0, 0, 0, 0, 0<br/>0, 0, 0, 0, 0, 0, 0, 0, 0]>, fillcolor="#6ae539"] ;
49 -> 50 ;
51 [label=<entropy = 0.0<br/>samples = 1<br/>value = [0, 0, 0, 0, 0, 0, 0, 0, 0, 0, 1, 0, 0, 0<br/>0, 0, 0, 0, 0, 0, 0, 0, 0]>, fillcolor="#39e2e5"] ;
49 -> 51 ;
52 [label=<count &le; 0.138<br/>entropy = 0.772<br/>samples = 74<br/>value = [0, 0, 0, 0, 0, 1, 0, 0, 0, 1, 0, 10, 0, 0<br/>0, 0, 0, 62, 0, 0, 0, 0, 0]>, fillcolor="#d55eea"] ;
32 -> 52 ;
53 [label=<entropy = 0.0<br/>samples = 62<br/>value = [0, 0, 0, 0, 0, 0, 0, 0, 0, 0, 0, 0, 0, 0<br/>0, 0, 0, 62, 0, 0, 0, 0, 0]>, fillcolor="#cb39e5"] ;
52 -> 53 ;
54 [label=<dst_host_diff_srv_rate &le; 0.065<br/>entropy = 0.817<br/>samples = 12<br/>value = [0, 0, 0, 0, 0, 1, 0, 0, 0, 1, 0, 10, 0, 0<br/>0, 0, 0, 0, 0, 0, 0, 0, 0]>, fillcolor="#5dc2ea"] ;
52 -> 54 ;
55 [label=<entropy = 0.0<br/>samples = 10<br/>value = [0, 0, 0, 0, 0, 0, 0, 0, 0, 0, 0, 10, 0, 0<br/>0, 0, 0, 0, 0, 0, 0, 0, 0]>, fillcolor="#39b4e5"] ;
54 -> 55 ;
56 [label=<dst_host_rerror_rate &le; 0.54<br/>entropy = 1.0<br/>samples = 2<br/>value = [0, 0, 0, 0, 0, 1, 0, 0, 0, 1, 0, 0, 0, 0<br/>0, 0, 0, 0, 0, 0, 0, 0, 0]>, fillcolor="#ffffff"] ;
54 -> 56 ;
57 [label=<entropy = 0.0<br/>samples = 1<br/>value = [0, 0, 0, 0, 0, 1, 0, 0, 0, 0, 0, 0, 0, 0<br/>0, 0, 0, 0, 0, 0, 0, 0, 0]>, fillcolor="#6ae539"] ;
56 -> 57 ;
58 [label=<entropy = 0.0<br/>samples = 1<br/>value = [0, 0, 0, 0, 0, 0, 0, 0, 0, 1, 0, 0, 0, 0<br/>0, 0, 0, 0, 0, 0, 0, 0, 0]>, fillcolor="#39e5ba"] ;
56 -> 58 ;
59 [label=<dst_host_rerror_rate &le; 0.065<br/>entropy = 1.361<br/>samples = 3083<br/>value = [0, 0, 0, 0, 0, 0, 0, 0, 0, 114, 6, 387, 0, 0<br/>0, 281, 0, 2217, 0, 0, 78, 0, 0]>, fillcolor="#dc79ed"] ;
1 -> 59 ;
60 [label=<service_private &le; 0.5<br/>entropy = 1.447<br/>samples = 675<br/>value = [0, 0, 0, 0, 0, 0, 0, 0, 0, 103, 6, 384, 0, 0<br/>0, 0, 0, 182, 0, 0, 0, 0, 0]>, fillcolor="#aee0f4"] ;
59 -> 60 ;
61 [label=<dst_host_diff_srv_rate &le; 0.255<br/>entropy = 0.499<br/>samples = 427<br/>value = [0, 0, 0, 0, 0, 0, 0, 0, 0, 2, 0, 384, 0, 0<br/>0, 0, 0, 41, 0, 0, 0, 0, 0]>, fillcolor="#4fbce8"] ;
60 -> 61 ;
62 [label=<dst_host_same_src_port_rate &le; 0.925<br/>entropy = 1.0<br/>samples = 82<br/>value = [0, 0, 0, 0, 0, 0, 0, 0, 0, 0, 0, 41, 0, 0<br/>0, 0, 0, 41, 0, 0, 0, 0, 0]>, fillcolor="#ffffff"] ;
61 -> 62 ;
63 [label=<entropy = 0.0<br/>samples = 41<br/>value = [0, 0, 0, 0, 0, 0, 0, 0, 0, 0, 0, 41, 0, 0<br/>0, 0, 0, 0, 0, 0, 0, 0, 0]>, fillcolor="#39b4e5"] ;
62 -> 63 ;
64 [label=<entropy = 0.0<br/>samples = 41<br/>value = [0, 0, 0, 0, 0, 0, 0, 0, 0, 0, 0, 0, 0, 0<br/>0, 0, 0, 41, 0, 0, 0, 0, 0]>, fillcolor="#cb39e5"] ;
62 -> 64 ;
65 [label=<serror_rate &le; 0.665<br/>entropy = 0.051<br/>samples = 345<br/>value = [0, 0, 0, 0, 0, 0, 0, 0, 0, 2, 0, 343, 0, 0<br/>0, 0, 0, 0, 0, 0, 0, 0, 0]>, fillcolor="#3ab4e5"] ;
61 -> 65 ;
66 [label=<entropy = 0.0<br/>samples = 343<br/>value = [0, 0, 0, 0, 0, 0, 0, 0, 0, 0, 0, 343, 0, 0<br/>0, 0, 0, 0, 0, 0, 0, 0, 0]>, fillcolor="#39b4e5"] ;
65 -> 66 ;
67 [label=<entropy = 0.0<br/>samples = 2<br/>value = [0, 0, 0, 0, 0, 0, 0, 0, 0, 2, 0, 0, 0, 0<br/>0, 0, 0, 0, 0, 0, 0, 0, 0]>, fillcolor="#39e5ba"] ;
65 -> 67 ;
68 [label=<srv_serror_rate &le; 0.5<br/>entropy = 1.121<br/>samples = 248<br/>value = [0, 0, 0, 0, 0, 0, 0, 0, 0, 101, 6, 0, 0, 0<br/>0, 0, 0, 141, 0, 0, 0, 0, 0]>, fillcolor="#f1c9f8"] ;
60 -> 68 ;
69 [label=<entropy = 0.0<br/>samples = 141<br/>value = [0, 0, 0, 0, 0, 0, 0, 0, 0, 0, 0, 0, 0, 0<br/>0, 0, 0, 141, 0, 0, 0, 0, 0]>, fillcolor="#cb39e5"] ;
68 -> 69 ;
70 [label=<flag_SH &le; 0.5<br/>entropy = 0.312<br/>samples = 107<br/>value = [0, 0, 0, 0, 0, 0, 0, 0, 0, 101, 6, 0, 0, 0<br/>0, 0, 0, 0, 0, 0, 0, 0, 0]>, fillcolor="#45e7be"] ;
68 -> 70 ;
71 [label=<entropy = 0.0<br/>samples = 101<br/>value = [0, 0, 0, 0, 0, 0, 0, 0, 0, 101, 0, 0, 0, 0<br/>0, 0, 0, 0, 0, 0, 0, 0, 0]>, fillcolor="#39e5ba"] ;
70 -> 71 ;
72 [label=<entropy = 0.0<br/>samples = 6<br/>value = [0, 0, 0, 0, 0, 0, 0, 0, 0, 0, 6, 0, 0, 0<br/>0, 0, 0, 0, 0, 0, 0, 0, 0]>, fillcolor="#39e2e5"] ;
70 -> 72 ;
73 [label=<diff_srv_rate &le; 0.59<br/>entropy = 0.775<br/>samples = 2408<br/>value = [0, 0, 0, 0, 0, 0, 0, 0, 0, 11, 0, 3, 0, 0<br/>0, 281, 0, 2035, 0, 0, 78, 0, 0]>, fillcolor="#d45cea"] ;
59 -> 73 ;
74 [label=<flag_SF &le; 0.5<br/>entropy = 1.49<br/>samples = 717<br/>value = [0, 0, 0, 0, 0, 0, 0, 0, 0, 11, 0, 1, 0, 0<br/>0, 279, 0, 348, 0, 0, 78, 0, 0]>, fillcolor="#f7e0fb"] ;
73 -> 74 ;
75 [label=<dst_host_same_src_port_rate &le; 0.19<br/>entropy = 0.265<br/>samples = 291<br/>value = [0, 0, 0, 0, 0, 0, 0, 0, 0, 11, 0, 1, 0, 0<br/>0, 279, 0, 0, 0, 0, 0, 0, 0]>, fillcolor="#7541e6"] ;
74 -> 75 ;
76 [label=<rerror_rate &le; 0.6<br/>entropy = 0.414<br/>samples = 12<br/>value = [0, 0, 0, 0, 0, 0, 0, 0, 0, 11, 0, 1, 0, 0<br/>0, 0, 0, 0, 0, 0, 0, 0, 0]>, fillcolor="#4be7c0"] ;
75 -> 76 ;
77 [label=<entropy = 0.0<br/>samples = 1<br/>value = [0, 0, 0, 0, 0, 0, 0, 0, 0, 0, 0, 1, 0, 0<br/>0, 0, 0, 0, 0, 0, 0, 0, 0]>, fillcolor="#39b4e5"] ;
76 -> 77 ;
78 [label=<entropy = 0.0<br/>samples = 11<br/>value = [0, 0, 0, 0, 0, 0, 0, 0, 0, 11, 0, 0, 0, 0<br/>0, 0, 0, 0, 0, 0, 0, 0, 0]>, fillcolor="#39e5ba"] ;
76 -> 78 ;
79 [label=<entropy = 0.0<br/>samples = 279<br/>value = [0, 0, 0, 0, 0, 0, 0, 0, 0, 0, 0, 0, 0, 0<br/>0, 279, 0, 0, 0, 0, 0, 0, 0]>, fillcolor="#6f39e5"] ;
75 -> 79 ;
80 [label=<wrong_fragment &le; 0.167<br/>entropy = 0.687<br/>samples = 426<br/>value = [0, 0, 0, 0, 0, 0, 0, 0, 0, 0, 0, 0, 0, 0<br/>0, 0, 0, 348, 0, 0, 78, 0, 0]>, fillcolor="#d765eb"] ;
74 -> 80 ;
81 [label=<entropy = 0.0<br/>samples = 348<br/>value = [0, 0, 0, 0, 0, 0, 0, 0, 0, 0, 0, 0, 0, 0<br/>0, 0, 0, 348, 0, 0, 0, 0, 0]>, fillcolor="#cb39e5"] ;
80 -> 81 ;
82 [label=<entropy = 0.0<br/>samples = 78<br/>value = [0, 0, 0, 0, 0, 0, 0, 0, 0, 0, 0, 0, 0, 0<br/>0, 0, 0, 0, 0, 0, 78, 0, 0]>, fillcolor="#e53978"] ;
80 -> 82 ;
83 [label=<same_srv_rate &le; 0.225<br/>entropy = 0.026<br/>samples = 1691<br/>value = [0, 0, 0, 0, 0, 0, 0, 0, 0, 0, 0, 2, 0, 0<br/>0, 2, 0, 1687, 0, 0, 0, 0, 0]>, fillcolor="#cb39e5"] ;
73 -> 83 ;
84 [label=<entropy = 0.0<br/>samples = 1678<br/>value = [0, 0, 0, 0, 0, 0, 0, 0, 0, 0, 0, 0, 0, 0<br/>0, 0, 0, 1678, 0, 0, 0, 0, 0]>, fillcolor="#cb39e5"] ;
83 -> 84 ;
85 [label=<flag_RSTR &le; 0.5<br/>entropy = 1.198<br/>samples = 13<br/>value = [0, 0, 0, 0, 0, 0, 0, 0, 0, 0, 0, 2, 0, 0<br/>0, 2, 0, 9, 0, 0, 0, 0, 0]>, fillcolor="#de81ee"] ;
83 -> 85 ;
86 [label=<flag_RSTO &le; 0.5<br/>entropy = 0.469<br/>samples = 10<br/>value = [0, 0, 0, 0, 0, 0, 0, 0, 0, 0, 0, 1, 0, 0<br/>0, 0, 0, 9, 0, 0, 0, 0, 0]>, fillcolor="#d14fe8"] ;
85 -> 86 ;
87 [label=<entropy = 0.0<br/>samples = 9<br/>value = [0, 0, 0, 0, 0, 0, 0, 0, 0, 0, 0, 0, 0, 0<br/>0, 0, 0, 9, 0, 0, 0, 0, 0]>, fillcolor="#cb39e5"] ;
86 -> 87 ;
88 [label=<entropy = 0.0<br/>samples = 1<br/>value = [0, 0, 0, 0, 0, 0, 0, 0, 0, 0, 0, 1, 0, 0<br/>0, 0, 0, 0, 0, 0, 0, 0, 0]>, fillcolor="#39b4e5"] ;
86 -> 88 ;
89 [label=<dst_bytes &le; 0.0<br/>entropy = 0.918<br/>samples = 3<br/>value = [0, 0, 0, 0, 0, 0, 0, 0, 0, 0, 0, 1, 0, 0<br/>0, 2, 0, 0, 0, 0, 0, 0, 0]>, fillcolor="#b79cf2"] ;
85 -> 89 ;
90 [label=<entropy = 0.0<br/>samples = 2<br/>value = [0, 0, 0, 0, 0, 0, 0, 0, 0, 0, 0, 0, 0, 0<br/>0, 2, 0, 0, 0, 0, 0, 0, 0]>, fillcolor="#6f39e5"] ;
89 -> 90 ;
91 [label=<entropy = 0.0<br/>samples = 1<br/>value = [0, 0, 0, 0, 0, 0, 0, 0, 0, 0, 0, 1, 0, 0<br/>0, 0, 0, 0, 0, 0, 0, 0, 0]>, fillcolor="#39b4e5"] ;
89 -> 91 ;
92 [label=<difficulty &le; 0.929<br/>entropy = 1.256<br/>samples = 64340<br/>value = [771, 19, 8, 42, 10, 2864, 14, 9, 7, 808, 1173<br/>52488, 2, 3, 158, 1977, 9, 539, 2112, 1, 626, 688<br/>12]>, fillcolor="#5fc2ea"] ;
0 -> 92 [labeldistance=2.5, labelangle=-45, headlabel="False"] ;
93 [label=<protocol_type_icmp &le; 0.5<br/>entropy = 2.773<br/>samples = 19507<br/>value = [771, 19, 8, 42, 10, 2864, 9, 9, 7, 669, 1170<br/>8145, 2, 3, 157, 1872, 9, 529, 1886, 1, 625, 688<br/>12]>, fillcolor="#c0e7f7"] ;
92 -> 93 ;
94 [label=<dst_host_srv_rerror_rate &le; 0.005<br/>entropy = 2.28<br/>samples = 13797<br/>value = [771, 19, 8, 42, 10, 393, 9, 9, 7, 669, 391, 7753<br/>2, 3, 0, 1867, 9, 509, 0, 1, 625, 688, 12]>, fillcolor="#9ddaf2"] ;
93 -> 94 ;
95 [label=<service_private &le; 0.5<br/>entropy = 1.688<br/>samples = 10175<br/>value = [46, 15, 8, 1, 10, 30, 9, 8, 7, 652, 391, 7129<br/>2, 3, 0, 31, 8, 507, 0, 1, 625, 680, 12]>, fillcolor="#79cced"] ;
94 -> 95 ;
96 [label=<srv_serror_rate &le; 0.575<br/>entropy = 1.061<br/>samples = 8623<br/>value = [46, 15, 8, 1, 10, 30, 9, 8, 7, 635, 33, 7045<br/>2, 3, 0, 8, 8, 62, 0, 1, 0, 680, 12]>, fillcolor="#60c3ea"] ;
95 -> 96 ;
97 [label=<difficulty &le; 0.738<br/>entropy = 0.696<br/>samples = 7747<br/>value = [46, 15, 8, 0, 2, 30, 0, 8, 7, 5, 0, 6851, 2<br/>3, 0, 8, 8, 62, 0, 1, 0, 679, 12]>, fillcolor="#52bee8"] ;
96 -> 97 ;
98 [label=<dst_host_serror_rate &le; 0.225<br/>entropy = 1.944<br/>samples = 1310<br/>value = [46, 15, 8, 0, 2, 30, 0, 8, 7, 1, 0, 425, 2<br/>3, 0, 8, 8, 62, 0, 1, 0, 672, 12]>, fillcolor="#f8c8cd"] ;
97 -> 98 ;
99 [label=<logged_in &le; 0.5<br/>entropy = 1.894<br/>samples = 1040<br/>value = [46, 15, 8, 0, 1, 30, 0, 8, 7, 0, 0, 159, 2<br/>3, 0, 8, 8, 62, 0, 1, 0, 671, 11]>, fillcolor="#f08c98"] ;
98 -> 99 ;
100 [label=<dst_host_diff_srv_rate &le; 0.68<br/>entropy = 2.218<br/>samples = 176<br/>value = [0, 0, 2, 0, 0, 27, 0, 1, 3, 0, 0, 72, 0, 0<br/>0, 7, 4, 50, 0, 0, 0, 0, 10]>, fillcolor="#dcf2fa"] ;
99 -> 100 ;
101 [label=<dst_host_same_srv_rate &le; 0.055<br/>entropy = 1.778<br/>samples = 144<br/>value = [0, 0, 2, 0, 0, 0, 0, 1, 3, 0, 0, 72, 0, 0<br/>0, 2, 4, 50, 0, 0, 0, 0, 10]>, fillcolor="#d1edf9"] ;
100 -> 101 ;
102 [label=<service_telnet &le; 0.5<br/>entropy = 1.038<br/>samples = 66<br/>value = [0, 0, 0, 0, 0, 0, 0, 0, 0, 0, 0, 14, 0, 0<br/>0, 1, 2, 49, 0, 0, 0, 0, 0]>, fillcolor="#dc7aee"] ;
101 -> 102 ;
103 [label=<dst_host_srv_serror_rate &le; 0.05<br/>entropy = 0.657<br/>samples = 59<br/>value = [0, 0, 0, 0, 0, 0, 0, 0, 0, 0, 0, 10, 0, 0<br/>0, 0, 0, 49, 0, 0, 0, 0, 0]>, fillcolor="#d661ea"] ;
102 -> 103 ;
104 [label=<difficulty &le; 0.643<br/>entropy = 0.445<br/>samples = 54<br/>value = [0, 0, 0, 0, 0, 0, 0, 0, 0, 0, 0, 5, 0, 0<br/>0, 0, 0, 49, 0, 0, 0, 0, 0]>, fillcolor="#d04de8"] ;
103 -> 104 ;
105 [label=<dst_host_same_srv_rate &le; 0.005<br/>entropy = 0.141<br/>samples = 50<br/>value = [0, 0, 0, 0, 0, 0, 0, 0, 0, 0, 0, 1, 0, 0<br/>0, 0, 0, 49, 0, 0, 0, 0, 0]>, fillcolor="#cc3de6"] ;
104 -> 105 ;
106 [label=<dst_host_diff_srv_rate &le; 0.085<br/>entropy = 0.592<br/>samples = 7<br/>value = [0, 0, 0, 0, 0, 0, 0, 0, 0, 0, 0, 1, 0, 0<br/>0, 0, 0, 6, 0, 0, 0, 0, 0]>, fillcolor="#d45ae9"] ;
105 -> 106 ;
107 [label=<service_finger &le; 0.5<br/>entropy = 1.0<br/>samples = 2<br/>value = [0, 0, 0, 0, 0, 0, 0, 0, 0, 0, 0, 1, 0, 0<br/>0, 0, 0, 1, 0, 0, 0, 0, 0]>, fillcolor="#ffffff"] ;
106 -> 107 ;
108 [label=<entropy = 0.0<br/>samples = 1<br/>value = [0, 0, 0, 0, 0, 0, 0, 0, 0, 0, 0, 1, 0, 0<br/>0, 0, 0, 0, 0, 0, 0, 0, 0]>, fillcolor="#39b4e5"] ;
107 -> 108 ;
109 [label=<entropy = 0.0<br/>samples = 1<br/>value = [0, 0, 0, 0, 0, 0, 0, 0, 0, 0, 0, 0, 0, 0<br/>0, 0, 0, 1, 0, 0, 0, 0, 0]>, fillcolor="#cb39e5"] ;
107 -> 109 ;
110 [label=<entropy = 0.0<br/>samples = 5<br/>value = [0, 0, 0, 0, 0, 0, 0, 0, 0, 0, 0, 0, 0, 0<br/>0, 0, 0, 5, 0, 0, 0, 0, 0]>, fillcolor="#cb39e5"] ;
106 -> 110 ;
111 [label=<entropy = 0.0<br/>samples = 43<br/>value = [0, 0, 0, 0, 0, 0, 0, 0, 0, 0, 0, 0, 0, 0<br/>0, 0, 0, 43, 0, 0, 0, 0, 0]>, fillcolor="#cb39e5"] ;
105 -> 111 ;
112 [label=<entropy = 0.0<br/>samples = 4<br/>value = [0, 0, 0, 0, 0, 0, 0, 0, 0, 0, 0, 4, 0, 0<br/>0, 0, 0, 0, 0, 0, 0, 0, 0]>, fillcolor="#39b4e5"] ;
104 -> 112 ;
113 [label=<entropy = 0.0<br/>samples = 5<br/>value = [0, 0, 0, 0, 0, 0, 0, 0, 0, 0, 0, 5, 0, 0<br/>0, 0, 0, 0, 0, 0, 0, 0, 0]>, fillcolor="#39b4e5"] ;
103 -> 113 ;
114 [label=<difficulty &le; 0.476<br/>entropy = 1.379<br/>samples = 7<br/>value = [0, 0, 0, 0, 0, 0, 0, 0, 0, 0, 0, 4, 0, 0<br/>0, 1, 2, 0, 0, 0, 0, 0, 0]>, fillcolor="#b0e1f5"] ;
102 -> 114 ;
115 [label=<dst_host_serror_rate &le; 0.04<br/>entropy = 0.918<br/>samples = 3<br/>value = [0, 0, 0, 0, 0, 0, 0, 0, 0, 0, 0, 0, 0, 0<br/>0, 1, 2, 0, 0, 0, 0, 0, 0]>, fillcolor="#ce9cf2"] ;
114 -> 115 ;
116 [label=<entropy = 0.0<br/>samples = 2<br/>value = [0, 0, 0, 0, 0, 0, 0, 0, 0, 0, 0, 0, 0, 0<br/>0, 0, 2, 0, 0, 0, 0, 0, 0]>, fillcolor="#9d39e5"] ;
115 -> 116 ;
117 [label=<entropy = 0.0<br/>samples = 1<br/>value = [0, 0, 0, 0, 0, 0, 0, 0, 0, 0, 0, 0, 0, 0<br/>0, 1, 0, 0, 0, 0, 0, 0, 0]>, fillcolor="#6f39e5"] ;
115 -> 117 ;
118 [label=<entropy = 0.0<br/>samples = 4<br/>value = [0, 0, 0, 0, 0, 0, 0, 0, 0, 0, 0, 4, 0, 0<br/>0, 0, 0, 0, 0, 0, 0, 0, 0]>, fillcolor="#39b4e5"] ;
114 -> 118 ;
119 [label=<dst_bytes &le; 0.0<br/>entropy = 1.391<br/>samples = 78<br/>value = [0, 0, 2, 0, 0, 0, 0, 1, 3, 0, 0, 58, 0, 0<br/>0, 1, 2, 1, 0, 0, 0, 0, 10]>, fillcolor="#73caed"] ;
101 -> 119 ;
120 [label=<difficulty &le; 0.238<br/>entropy = 0.752<br/>samples = 63<br/>value = [0, 0, 2, 0, 0, 0, 0, 0, 1, 0, 0, 56, 0, 0<br/>0, 1, 2, 1, 0, 0, 0, 0, 0]>, fillcolor="#50bde8"] ;
119 -> 120 ;
121 [label=<service_other &le; 0.5<br/>entropy = 0.918<br/>samples = 3<br/>value = [0, 0, 0, 0, 0, 0, 0, 0, 0, 0, 0, 0, 0, 0<br/>0, 1, 2, 0, 0, 0, 0, 0, 0]>, fillcolor="#ce9cf2"] ;
120 -> 121 ;
122 [label=<entropy = 0.0<br/>samples = 1<br/>value = [0, 0, 0, 0, 0, 0, 0, 0, 0, 0, 0, 0, 0, 0<br/>0, 1, 0, 0, 0, 0, 0, 0, 0]>, fillcolor="#6f39e5"] ;
121 -> 122 ;
123 [label=<entropy = 0.0<br/>samples = 2<br/>value = [0, 0, 0, 0, 0, 0, 0, 0, 0, 0, 0, 0, 0, 0<br/>0, 0, 2, 0, 0, 0, 0, 0, 0]>, fillcolor="#9d39e5"] ;
121 -> 123 ;
124 [label=<dst_host_srv_count &le; 0.006<br/>entropy = 0.453<br/>samples = 60<br/>value = [0, 0, 2, 0, 0, 0, 0, 0, 1, 0, 0, 56, 0, 0<br/>0, 0, 0, 1, 0, 0, 0, 0, 0]>, fillcolor="#47b9e7"] ;
120 -> 124 ;
125 [label=<dst_host_same_srv_rate &le; 0.585<br/>entropy = 1.5<br/>samples = 4<br/>value = [0, 0, 0, 0, 0, 0, 0, 0, 1, 0, 0, 2, 0, 0<br/>0, 0, 0, 1, 0, 0, 0, 0, 0]>, fillcolor="#bde6f6"] ;
124 -> 125 ;
126 [label=<entropy = 0.0<br/>samples = 1<br/>value = [0, 0, 0, 0, 0, 0, 0, 0, 0, 0, 0, 0, 0, 0<br/>0, 0, 0, 1, 0, 0, 0, 0, 0]>, fillcolor="#cb39e5"] ;
125 -> 126 ;
127 [label=<difficulty &le; 0.643<br/>entropy = 0.918<br/>samples = 3<br/>value = [0, 0, 0, 0, 0, 0, 0, 0, 1, 0, 0, 2, 0, 0<br/>0, 0, 0, 0, 0, 0, 0, 0, 0]>, fillcolor="#9cdaf2"] ;
125 -> 127 ;
128 [label=<entropy = 0.0<br/>samples = 2<br/>value = [0, 0, 0, 0, 0, 0, 0, 0, 0, 0, 0, 2, 0, 0<br/>0, 0, 0, 0, 0, 0, 0, 0, 0]>, fillcolor="#39b4e5"] ;
127 -> 128 ;
129 [label=<entropy = 0.0<br/>samples = 1<br/>value = [0, 0, 0, 0, 0, 0, 0, 0, 1, 0, 0, 0, 0, 0<br/>0, 0, 0, 0, 0, 0, 0, 0, 0]>, fillcolor="#39e58f"] ;
127 -> 129 ;
130 [label=<dst_host_srv_diff_host_rate &le; 0.3<br/>entropy = 0.222<br/>samples = 56<br/>value = [0, 0, 2, 0, 0, 0, 0, 0, 0, 0, 0, 54, 0, 0<br/>0, 0, 0, 0, 0, 0, 0, 0, 0]>, fillcolor="#40b7e6"] ;
124 -> 130 ;
131 [label=<entropy = 0.0<br/>samples = 50<br/>value = [0, 0, 0, 0, 0, 0, 0, 0, 0, 0, 0, 50, 0, 0<br/>0, 0, 0, 0, 0, 0, 0, 0, 0]>, fillcolor="#39b4e5"] ;
130 -> 131 ;
132 [label=<service_ftp_data &le; 0.5<br/>entropy = 0.918<br/>samples = 6<br/>value = [0, 0, 2, 0, 0, 0, 0, 0, 0, 0, 0, 4, 0, 0<br/>0, 0, 0, 0, 0, 0, 0, 0, 0]>, fillcolor="#9cdaf2"] ;
130 -> 132 ;
133 [label=<entropy = 0.0<br/>samples = 4<br/>value = [0, 0, 0, 0, 0, 0, 0, 0, 0, 0, 0, 4, 0, 0<br/>0, 0, 0, 0, 0, 0, 0, 0, 0]>, fillcolor="#39b4e5"] ;
132 -> 133 ;
134 [label=<entropy = 0.0<br/>samples = 2<br/>value = [0, 0, 2, 0, 0, 0, 0, 0, 0, 0, 0, 0, 0, 0<br/>0, 0, 0, 0, 0, 0, 0, 0, 0]>, fillcolor="#e5da39"] ;
132 -> 134 ;
135 [label=<service_telnet &le; 0.5<br/>entropy = 1.426<br/>samples = 15<br/>value = [0, 0, 0, 0, 0, 0, 0, 1, 2, 0, 0, 2, 0, 0<br/>0, 0, 0, 0, 0, 0, 0, 0, 10]>, fillcolor="#ef9585"] ;
119 -> 135 ;
136 [label=<dst_bytes &le; 0.002<br/>entropy = 0.65<br/>samples = 12<br/>value = [0, 0, 0, 0, 0, 0, 0, 0, 2, 0, 0, 0, 0, 0<br/>0, 0, 0, 0, 0, 0, 0, 0, 10]>, fillcolor="#ea7561"] ;
135 -> 136 ;
137 [label=<dst_bytes &le; 0.0<br/>entropy = 0.918<br/>samples = 3<br/>value = [0, 0, 0, 0, 0, 0, 0, 0, 2, 0, 0, 0, 0, 0<br/>0, 0, 0, 0, 0, 0, 0, 0, 1]>, fillcolor="#9cf2c7"] ;
136 -> 137 ;
138 [label=<entropy = 0.0<br/>samples = 1<br/>value = [0, 0, 0, 0, 0, 0, 0, 0, 0, 0, 0, 0, 0, 0<br/>0, 0, 0, 0, 0, 0, 0, 0, 1]>, fillcolor="#e55339"] ;
137 -> 138 ;
139 [label=<entropy = 0.0<br/>samples = 2<br/>value = [0, 0, 0, 0, 0, 0, 0, 0, 2, 0, 0, 0, 0, 0<br/>0, 0, 0, 0, 0, 0, 0, 0, 0]>, fillcolor="#39e58f"] ;
137 -> 139 ;
140 [label=<entropy = 0.0<br/>samples = 9<br/>value = [0, 0, 0, 0, 0, 0, 0, 0, 0, 0, 0, 0, 0, 0<br/>0, 0, 0, 0, 0, 0, 0, 0, 9]>, fillcolor="#e55339"] ;
136 -> 140 ;
141 [label=<dst_host_same_srv_rate &le; 0.625<br/>entropy = 0.918<br/>samples = 3<br/>value = [0, 0, 0, 0, 0, 0, 0, 1, 0, 0, 0, 2, 0, 0<br/>0, 0, 0, 0, 0, 0, 0, 0, 0]>, fillcolor="#9cdaf2"] ;
135 -> 141 ;
142 [label=<entropy = 0.0<br/>samples = 2<br/>value = [0, 0, 0, 0, 0, 0, 0, 0, 0, 0, 0, 2, 0, 0<br/>0, 0, 0, 0, 0, 0, 0, 0, 0]>, fillcolor="#39b4e5"] ;
141 -> 142 ;
143 [label=<entropy = 0.0<br/>samples = 1<br/>value = [0, 0, 0, 0, 0, 0, 0, 1, 0, 0, 0, 0, 0, 0<br/>0, 0, 0, 0, 0, 0, 0, 0, 0]>, fillcolor="#39e561"] ;
141 -> 143 ;
144 [label=<dst_host_same_src_port_rate &le; 0.47<br/>entropy = 0.625<br/>samples = 32<br/>value = [0, 0, 0, 0, 0, 27, 0, 0, 0, 0, 0, 0, 0, 0<br/>0, 5, 0, 0, 0, 0, 0, 0, 0]>, fillcolor="#86ea5e"] ;
100 -> 144 ;
145 [label=<entropy = 0.0<br/>samples = 27<br/>value = [0, 0, 0, 0, 0, 27, 0, 0, 0, 0, 0, 0, 0, 0<br/>0, 0, 0, 0, 0, 0, 0, 0, 0]>, fillcolor="#6ae539"] ;
144 -> 145 ;
146 [label=<entropy = 0.0<br/>samples = 5<br/>value = [0, 0, 0, 0, 0, 0, 0, 0, 0, 0, 0, 0, 0, 0<br/>0, 5, 0, 0, 0, 0, 0, 0, 0]>, fillcolor="#6f39e5"] ;
144 -> 146 ;
147 [label=<num_compromised &le; 0.0<br/>entropy = 1.329<br/>samples = 864<br/>value = [46, 15, 6, 0, 1, 3, 0, 7, 4, 0, 0, 87, 2, 3<br/>0, 1, 4, 12, 0, 1, 0, 671, 1]>, fillcolor="#eb6a79"] ;
99 -> 147 ;
148 [label=<dst_host_srv_diff_host_rate &le; 0.105<br/>entropy = 0.908<br/>samples = 794<br/>value = [0, 3, 5, 0, 0, 3, 0, 6, 2, 0, 0, 86, 2, 3<br/>0, 1, 1, 9, 0, 1, 0, 671, 1]>, fillcolor="#ea5b6c"] ;
147 -> 148 ;
149 [label=<hot &le; 0.032<br/>entropy = 1.267<br/>samples = 471<br/>value = [0, 3, 5, 0, 0, 3, 0, 3, 2, 0, 0, 85, 2, 3<br/>0, 1, 1, 9, 0, 1, 0, 352, 1]>, fillcolor="#ed7684"] ;
148 -> 149 ;
150 [label=<difficulty &le; 0.5<br/>entropy = 1.886<br/>samples = 219<br/>value = [0, 3, 5, 0, 0, 3, 0, 2, 2, 0, 0, 84, 2, 3<br/>0, 1, 1, 8, 0, 1, 0, 104, 0]>, fillcolor="#fbe2e5"] ;
149 -> 150 ;
151 [label=<dst_host_same_src_port_rate &le; 0.025<br/>entropy = 1.846<br/>samples = 112<br/>value = [0, 1, 5, 0, 0, 3, 0, 2, 0, 0, 0, 8, 2, 3<br/>0, 1, 1, 8, 0, 1, 0, 77, 0]>, fillcolor="#ee7c89"] ;
150 -> 151 ;
152 [label=<dst_bytes &le; 0.0<br/>entropy = 2.078<br/>samples = 16<br/>value = [0, 0, 0, 0, 0, 0, 0, 0, 0, 0, 0, 0, 2, 3<br/>0, 1, 1, 8, 0, 1, 0, 0, 0]>, fillcolor="#ebb3f5"] ;
151 -> 152 ;
153 [label=<num_file_creations &le; 0.013<br/>entropy = 0.503<br/>samples = 9<br/>value = [0, 0, 0, 0, 0, 0, 0, 0, 0, 0, 0, 0, 0, 0<br/>0, 0, 1, 8, 0, 0, 0, 0, 0]>, fillcolor="#d252e8"] ;
152 -> 153 ;
154 [label=<entropy = 0.0<br/>samples = 8<br/>value = [0, 0, 0, 0, 0, 0, 0, 0, 0, 0, 0, 0, 0, 0<br/>0, 0, 0, 8, 0, 0, 0, 0, 0]>, fillcolor="#cb39e5"] ;
153 -> 154 ;
155 [label=<entropy = 0.0<br/>samples = 1<br/>value = [0, 0, 0, 0, 0, 0, 0, 0, 0, 0, 0, 0, 0, 0<br/>0, 0, 1, 0, 0, 0, 0, 0, 0]>, fillcolor="#9d39e5"] ;
153 -> 155 ;
156 [label=<src_bytes &le; 0.0<br/>entropy = 1.842<br/>samples = 7<br/>value = [0, 0, 0, 0, 0, 0, 0, 0, 0, 0, 0, 0, 2, 3<br/>0, 1, 0, 0, 0, 1, 0, 0, 0]>, fillcolor="#d7defa"] ;
152 -> 156 ;
157 [label=<entropy = 0.0<br/>samples = 3<br/>value = [0, 0, 0, 0, 0, 0, 0, 0, 0, 0, 0, 0, 0, 3<br/>0, 0, 0, 0, 0, 0, 0, 0, 0]>, fillcolor="#395be5"] ;
156 -> 157 ;
158 [label=<num_root &le; 0.0<br/>entropy = 1.5<br/>samples = 4<br/>value = [0, 0, 0, 0, 0, 0, 0, 0, 0, 0, 0, 0, 2, 0<br/>0, 1, 0, 0, 0, 1, 0, 0, 0]>, fillcolor="#bdd8f6"] ;
156 -> 158 ;
159 [label=<num_file_creations &le; 0.013<br/>entropy = 1.0<br/>samples = 2<br/>value = [0, 0, 0, 0, 0, 0, 0, 0, 0, 0, 0, 0, 0, 0<br/>0, 1, 0, 0, 0, 1, 0, 0, 0]>, fillcolor="#ffffff"] ;
158 -> 159 ;
160 [label=<entropy = 0.0<br/>samples = 1<br/>value = [0, 0, 0, 0, 0, 0, 0, 0, 0, 0, 0, 0, 0, 0<br/>0, 1, 0, 0, 0, 0, 0, 0, 0]>, fillcolor="#6f39e5"] ;
159 -> 160 ;
161 [label=<entropy = 0.0<br/>samples = 1<br/>value = [0, 0, 0, 0, 0, 0, 0, 0, 0, 0, 0, 0, 0, 0<br/>0, 0, 0, 0, 0, 1, 0, 0, 0]>, fillcolor="#e539a6"] ;
159 -> 161 ;
162 [label=<entropy = 0.0<br/>samples = 2<br/>value = [0, 0, 0, 0, 0, 0, 0, 0, 0, 0, 0, 0, 2, 0<br/>0, 0, 0, 0, 0, 0, 0, 0, 0]>, fillcolor="#3989e5"] ;
158 -> 162 ;
163 [label=<dst_host_diff_srv_rate &le; 0.45<br/>entropy = 1.117<br/>samples = 96<br/>value = [0, 1, 5, 0, 0, 3, 0, 2, 0, 0, 0, 8, 0, 0<br/>0, 0, 0, 0, 0, 0, 0, 77, 0]>, fillcolor="#eb6473"] ;
151 -> 163 ;
164 [label=<dst_host_count &le; 0.022<br/>entropy = 0.775<br/>samples = 90<br/>value = [0, 1, 4, 0, 0, 0, 0, 0, 0, 0, 0, 8, 0, 0<br/>0, 0, 0, 0, 0, 0, 0, 77, 0]>, fillcolor="#e95869"] ;
163 -> 164 ;
165 [label=<dst_host_srv_diff_host_rate &le; 0.03<br/>entropy = 1.371<br/>samples = 37<br/>value = [0, 1, 4, 0, 0, 0, 0, 0, 0, 0, 0, 8, 0, 0<br/>0, 0, 0, 0, 0, 0, 0, 24, 0]>, fillcolor="#f1929d"] ;
164 -> 165 ;
166 [label=<src_bytes &le; 0.0<br/>entropy = 1.784<br/>samples = 12<br/>value = [0, 1, 4, 0, 0, 0, 0, 0, 0, 0, 0, 5, 0, 0<br/>0, 0, 0, 0, 0, 0, 0, 2, 0]>, fillcolor="#e6f6fc"] ;
165 -> 166 ;
167 [label=<count &le; 0.004<br/>entropy = 0.811<br/>samples = 4<br/>value = [0, 1, 3, 0, 0, 0, 0, 0, 0, 0, 0, 0, 0, 0<br/>0, 0, 0, 0, 0, 0, 0, 0, 0]>, fillcolor="#eee67b"] ;
166 -> 167 ;
168 [label=<entropy = 0.0<br/>samples = 3<br/>value = [0, 0, 3, 0, 0, 0, 0, 0, 0, 0, 0, 0, 0, 0<br/>0, 0, 0, 0, 0, 0, 0, 0, 0]>, fillcolor="#e5da39"] ;
167 -> 168 ;
169 [label=<entropy = 0.0<br/>samples = 1<br/>value = [0, 1, 0, 0, 0, 0, 0, 0, 0, 0, 0, 0, 0, 0<br/>0, 0, 0, 0, 0, 0, 0, 0, 0]>, fillcolor="#e5ac39"] ;
167 -> 169 ;
170 [label=<num_root &le; 0.0<br/>entropy = 1.299<br/>samples = 8<br/>value = [0, 0, 1, 0, 0, 0, 0, 0, 0, 0, 0, 5, 0, 0<br/>0, 0, 0, 0, 0, 0, 0, 2, 0]>, fillcolor="#9cdaf2"] ;
166 -> 170 ;
171 [label=<dst_host_count &le; 0.014<br/>entropy = 0.863<br/>samples = 7<br/>value = [0, 0, 0, 0, 0, 0, 0, 0, 0, 0, 0, 5, 0, 0<br/>0, 0, 0, 0, 0, 0, 0, 2, 0]>, fillcolor="#88d2ef"] ;
170 -> 171 ;
172 [label=<entropy = 0.0<br/>samples = 4<br/>value = [0, 0, 0, 0, 0, 0, 0, 0, 0, 0, 0, 4, 0, 0<br/>0, 0, 0, 0, 0, 0, 0, 0, 0]>, fillcolor="#39b4e5"] ;
171 -> 172 ;
173 [label=<dst_host_srv_count &le; 0.018<br/>entropy = 0.918<br/>samples = 3<br/>value = [0, 0, 0, 0, 0, 0, 0, 0, 0, 0, 0, 1, 0, 0<br/>0, 0, 0, 0, 0, 0, 0, 2, 0]>, fillcolor="#f29ca6"] ;
171 -> 173 ;
174 [label=<entropy = 0.0<br/>samples = 2<br/>value = [0, 0, 0, 0, 0, 0, 0, 0, 0, 0, 0, 0, 0, 0<br/>0, 0, 0, 0, 0, 0, 0, 2, 0]>, fillcolor="#e5394d"] ;
173 -> 174 ;
175 [label=<entropy = 0.0<br/>samples = 1<br/>value = [0, 0, 0, 0, 0, 0, 0, 0, 0, 0, 0, 1, 0, 0<br/>0, 0, 0, 0, 0, 0, 0, 0, 0]>, fillcolor="#39b4e5"] ;
173 -> 175 ;
176 [label=<entropy = 0.0<br/>samples = 1<br/>value = [0, 0, 1, 0, 0, 0, 0, 0, 0, 0, 0, 0, 0, 0<br/>0, 0, 0, 0, 0, 0, 0, 0, 0]>, fillcolor="#e5da39"] ;
170 -> 176 ;
177 [label=<root_shell &le; 0.5<br/>entropy = 0.529<br/>samples = 25<br/>value = [0, 0, 0, 0, 0, 0, 0, 0, 0, 0, 0, 3, 0, 0<br/>0, 0, 0, 0, 0, 0, 0, 22, 0]>, fillcolor="#e95465"] ;
165 -> 177 ;
178 [label=<dst_host_srv_count &le; 0.131<br/>entropy = 0.414<br/>samples = 24<br/>value = [0, 0, 0, 0, 0, 0, 0, 0, 0, 0, 0, 2, 0, 0<br/>0, 0, 0, 0, 0, 0, 0, 22, 0]>, fillcolor="#e74b5d"] ;
177 -> 178 ;
179 [label=<dst_host_count &le; 0.014<br/>entropy = 0.971<br/>samples = 5<br/>value = [0, 0, 0, 0, 0, 0, 0, 0, 0, 0, 0, 2, 0, 0<br/>0, 0, 0, 0, 0, 0, 0, 3, 0]>, fillcolor="#f6bdc4"] ;
178 -> 179 ;
180 [label=<dst_host_count &le; 0.01<br/>entropy = 0.918<br/>samples = 3<br/>value = [0, 0, 0, 0, 0, 0, 0, 0, 0, 0, 0, 2, 0, 0<br/>0, 0, 0, 0, 0, 0, 0, 1, 0]>, fillcolor="#9cdaf2"] ;
179 -> 180 ;
181 [label=<entropy = 0.0<br/>samples = 1<br/>value = [0, 0, 0, 0, 0, 0, 0, 0, 0, 0, 0, 0, 0, 0<br/>0, 0, 0, 0, 0, 0, 0, 1, 0]>, fillcolor="#e5394d"] ;
180 -> 181 ;
182 [label=<entropy = 0.0<br/>samples = 2<br/>value = [0, 0, 0, 0, 0, 0, 0, 0, 0, 0, 0, 2, 0, 0<br/>0, 0, 0, 0, 0, 0, 0, 0, 0]>, fillcolor="#39b4e5"] ;
180 -> 182 ;
183 [label=<entropy = 0.0<br/>samples = 2<br/>value = [0, 0, 0, 0, 0, 0, 0, 0, 0, 0, 0, 0, 0, 0<br/>0, 0, 0, 0, 0, 0, 0, 2, 0]>, fillcolor="#e5394d"] ;
179 -> 183 ;
184 [label=<entropy = 0.0<br/>samples = 19<br/>value = [0, 0, 0, 0, 0, 0, 0, 0, 0, 0, 0, 0, 0, 0<br/>0, 0, 0, 0, 0, 0, 0, 19, 0]>, fillcolor="#e5394d"] ;
178 -> 184 ;
185 [label=<entropy = 0.0<br/>samples = 1<br/>value = [0, 0, 0, 0, 0, 0, 0, 0, 0, 0, 0, 1, 0, 0<br/>0, 0, 0, 0, 0, 0, 0, 0, 0]>, fillcolor="#39b4e5"] ;
177 -> 185 ;
186 [label=<entropy = 0.0<br/>samples = 53<br/>value = [0, 0, 0, 0, 0, 0, 0, 0, 0, 0, 0, 0, 0, 0<br/>0, 0, 0, 0, 0, 0, 0, 53, 0]>, fillcolor="#e5394d"] ;
164 -> 186 ;
187 [label=<dst_host_srv_count &le; 0.108<br/>entropy = 1.459<br/>samples = 6<br/>value = [0, 0, 1, 0, 0, 3, 0, 2, 0, 0, 0, 0, 0, 0<br/>0, 0, 0, 0, 0, 0, 0, 0, 0]>, fillcolor="#daf8ce"] ;
163 -> 187 ;
188 [label=<dst_host_srv_count &le; 0.008<br/>entropy = 0.918<br/>samples = 3<br/>value = [0, 0, 1, 0, 0, 0, 0, 2, 0, 0, 0, 0, 0, 0<br/>0, 0, 0, 0, 0, 0, 0, 0, 0]>, fillcolor="#9cf2b0"] ;
187 -> 188 ;
189 [label=<entropy = 0.0<br/>samples = 1<br/>value = [0, 0, 1, 0, 0, 0, 0, 0, 0, 0, 0, 0, 0, 0<br/>0, 0, 0, 0, 0, 0, 0, 0, 0]>, fillcolor="#e5da39"] ;
188 -> 189 ;
190 [label=<entropy = 0.0<br/>samples = 2<br/>value = [0, 0, 0, 0, 0, 0, 0, 2, 0, 0, 0, 0, 0, 0<br/>0, 0, 0, 0, 0, 0, 0, 0, 0]>, fillcolor="#39e561"] ;
188 -> 190 ;
191 [label=<entropy = 0.0<br/>samples = 3<br/>value = [0, 0, 0, 0, 0, 3, 0, 0, 0, 0, 0, 0, 0, 0<br/>0, 0, 0, 0, 0, 0, 0, 0, 0]>, fillcolor="#6ae539"] ;
187 -> 191 ;
192 [label=<hot &le; 0.006<br/>entropy = 1.066<br/>samples = 107<br/>value = [0, 2, 0, 0, 0, 0, 0, 0, 2, 0, 0, 76, 0, 0<br/>0, 0, 0, 0, 0, 0, 0, 27, 0]>, fillcolor="#86d1ef"] ;
150 -> 192 ;
193 [label=<difficulty &le; 0.548<br/>entropy = 0.782<br/>samples = 99<br/>value = [0, 0, 0, 0, 0, 0, 0, 0, 0, 0, 0, 76, 0, 0<br/>0, 0, 0, 0, 0, 0, 0, 23, 0]>, fillcolor="#75cbed"] ;
192 -> 193 ;
194 [label=<dst_host_count &le; 0.029<br/>entropy = 0.996<br/>samples = 28<br/>value = [0, 0, 0, 0, 0, 0, 0, 0, 0, 0, 0, 13, 0, 0<br/>0, 0, 0, 0, 0, 0, 0, 15, 0]>, fillcolor="#fce5e7"] ;
193 -> 194 ;
195 [label=<dst_host_srv_diff_host_rate &le; 0.095<br/>entropy = 0.988<br/>samples = 23<br/>value = [0, 0, 0, 0, 0, 0, 0, 0, 0, 0, 0, 13, 0, 0<br/>0, 0, 0, 0, 0, 0, 0, 10, 0]>, fillcolor="#d1eef9"] ;
194 -> 195 ;
196 [label=<count &le; 0.003<br/>entropy = 0.934<br/>samples = 20<br/>value = [0, 0, 0, 0, 0, 0, 0, 0, 0, 0, 0, 13, 0, 0<br/>0, 0, 0, 0, 0, 0, 0, 7, 0]>, fillcolor="#a4dcf3"] ;
195 -> 196 ;
197 [label=<dst_host_srv_count &le; 0.025<br/>entropy = 0.994<br/>samples = 11<br/>value = [0, 0, 0, 0, 0, 0, 0, 0, 0, 0, 0, 5, 0, 0<br/>0, 0, 0, 0, 0, 0, 0, 6, 0]>, fillcolor="#fbdee1"] ;
196 -> 197 ;
198 [label=<entropy = 0.0<br/>samples = 3<br/>value = [0, 0, 0, 0, 0, 0, 0, 0, 0, 0, 0, 0, 0, 0<br/>0, 0, 0, 0, 0, 0, 0, 3, 0]>, fillcolor="#e5394d"] ;
197 -> 198 ;
199 [label=<dst_host_srv_diff_host_rate &le; 0.06<br/>entropy = 0.954<br/>samples = 8<br/>value = [0, 0, 0, 0, 0, 0, 0, 0, 0, 0, 0, 5, 0, 0<br/>0, 0, 0, 0, 0, 0, 0, 3, 0]>, fillcolor="#b0e1f5"] ;
197 -> 199 ;
200 [label=<entropy = 0.0<br/>samples = 4<br/>value = [0, 0, 0, 0, 0, 0, 0, 0, 0, 0, 0, 4, 0, 0<br/>0, 0, 0, 0, 0, 0, 0, 0, 0]>, fillcolor="#39b4e5"] ;
199 -> 200 ;
201 [label=<src_bytes &le; 0.0<br/>entropy = 0.811<br/>samples = 4<br/>value = [0, 0, 0, 0, 0, 0, 0, 0, 0, 0, 0, 1, 0, 0<br/>0, 0, 0, 0, 0, 0, 0, 3, 0]>, fillcolor="#ee7b88"] ;
199 -> 201 ;
202 [label=<entropy = 0.0<br/>samples = 3<br/>value = [0, 0, 0, 0, 0, 0, 0, 0, 0, 0, 0, 0, 0, 0<br/>0, 0, 0, 0, 0, 0, 0, 3, 0]>, fillcolor="#e5394d"] ;
201 -> 202 ;
203 [label=<entropy = 0.0<br/>samples = 1<br/>value = [0, 0, 0, 0, 0, 0, 0, 0, 0, 0, 0, 1, 0, 0<br/>0, 0, 0, 0, 0, 0, 0, 0, 0]>, fillcolor="#39b4e5"] ;
201 -> 203 ;
204 [label=<dst_host_srv_count &le; 0.137<br/>entropy = 0.503<br/>samples = 9<br/>value = [0, 0, 0, 0, 0, 0, 0, 0, 0, 0, 0, 8, 0, 0<br/>0, 0, 0, 0, 0, 0, 0, 1, 0]>, fillcolor="#52bde8"] ;
196 -> 204 ;
205 [label=<entropy = 0.0<br/>samples = 7<br/>value = [0, 0, 0, 0, 0, 0, 0, 0, 0, 0, 0, 7, 0, 0<br/>0, 0, 0, 0, 0, 0, 0, 0, 0]>, fillcolor="#39b4e5"] ;
204 -> 205 ;
206 [label=<dst_host_count &le; 0.01<br/>entropy = 1.0<br/>samples = 2<br/>value = [0, 0, 0, 0, 0, 0, 0, 0, 0, 0, 0, 1, 0, 0<br/>0, 0, 0, 0, 0, 0, 0, 1, 0]>, fillcolor="#ffffff"] ;
204 -> 206 ;
207 [label=<entropy = 0.0<br/>samples = 1<br/>value = [0, 0, 0, 0, 0, 0, 0, 0, 0, 0, 0, 0, 0, 0<br/>0, 0, 0, 0, 0, 0, 0, 1, 0]>, fillcolor="#e5394d"] ;
206 -> 207 ;
208 [label=<entropy = 0.0<br/>samples = 1<br/>value = [0, 0, 0, 0, 0, 0, 0, 0, 0, 0, 0, 1, 0, 0<br/>0, 0, 0, 0, 0, 0, 0, 0, 0]>, fillcolor="#39b4e5"] ;
206 -> 208 ;
209 [label=<entropy = 0.0<br/>samples = 3<br/>value = [0, 0, 0, 0, 0, 0, 0, 0, 0, 0, 0, 0, 0, 0<br/>0, 0, 0, 0, 0, 0, 0, 3, 0]>, fillcolor="#e5394d"] ;
195 -> 209 ;
210 [label=<entropy = 0.0<br/>samples = 5<br/>value = [0, 0, 0, 0, 0, 0, 0, 0, 0, 0, 0, 0, 0, 0<br/>0, 0, 0, 0, 0, 0, 0, 5, 0]>, fillcolor="#e5394d"] ;
194 -> 210 ;
211 [label=<dst_host_srv_count &le; 0.165<br/>entropy = 0.508<br/>samples = 71<br/>value = [0, 0, 0, 0, 0, 0, 0, 0, 0, 0, 0, 63, 0, 0<br/>0, 0, 0, 0, 0, 0, 0, 8, 0]>, fillcolor="#52bee8"] ;
193 -> 211 ;
212 [label=<src_bytes &le; 0.003<br/>entropy = 0.722<br/>samples = 40<br/>value = [0, 0, 0, 0, 0, 0, 0, 0, 0, 0, 0, 32, 0, 0<br/>0, 0, 0, 0, 0, 0, 0, 8, 0]>, fillcolor="#6ac7ec"] ;
211 -> 212 ;
213 [label=<dst_host_count &le; 0.014<br/>entropy = 0.629<br/>samples = 38<br/>value = [0, 0, 0, 0, 0, 0, 0, 0, 0, 0, 0, 32, 0, 0<br/>0, 0, 0, 0, 0, 0, 0, 6, 0]>, fillcolor="#5ec2ea"] ;
212 -> 213 ;
214 [label=<num_root &le; 0.0<br/>entropy = 0.918<br/>samples = 15<br/>value = [0, 0, 0, 0, 0, 0, 0, 0, 0, 0, 0, 10, 0, 0<br/>0, 0, 0, 0, 0, 0, 0, 5, 0]>, fillcolor="#9cdaf2"] ;
213 -> 214 ;
215 [label=<entropy = 0.0<br/>samples = 5<br/>value = [0, 0, 0, 0, 0, 0, 0, 0, 0, 0, 0, 0, 0, 0<br/>0, 0, 0, 0, 0, 0, 0, 5, 0]>, fillcolor="#e5394d"] ;
214 -> 215 ;
216 [label=<entropy = 0.0<br/>samples = 10<br/>value = [0, 0, 0, 0, 0, 0, 0, 0, 0, 0, 0, 10, 0, 0<br/>0, 0, 0, 0, 0, 0, 0, 0, 0]>, fillcolor="#39b4e5"] ;
214 -> 216 ;
217 [label=<dst_host_srv_diff_host_rate &le; 0.085<br/>entropy = 0.258<br/>samples = 23<br/>value = [0, 0, 0, 0, 0, 0, 0, 0, 0, 0, 0, 22, 0, 0<br/>0, 0, 0, 0, 0, 0, 0, 1, 0]>, fillcolor="#42b7e6"] ;
213 -> 217 ;
218 [label=<entropy = 0.0<br/>samples = 22<br/>value = [0, 0, 0, 0, 0, 0, 0, 0, 0, 0, 0, 22, 0, 0<br/>0, 0, 0, 0, 0, 0, 0, 0, 0]>, fillcolor="#39b4e5"] ;
217 -> 218 ;
219 [label=<entropy = 0.0<br/>samples = 1<br/>value = [0, 0, 0, 0, 0, 0, 0, 0, 0, 0, 0, 0, 0, 0<br/>0, 0, 0, 0, 0, 0, 0, 1, 0]>, fillcolor="#e5394d"] ;
217 -> 219 ;
220 [label=<entropy = 0.0<br/>samples = 2<br/>value = [0, 0, 0, 0, 0, 0, 0, 0, 0, 0, 0, 0, 0, 0<br/>0, 0, 0, 0, 0, 0, 0, 2, 0]>, fillcolor="#e5394d"] ;
212 -> 220 ;
221 [label=<entropy = 0.0<br/>samples = 31<br/>value = [0, 0, 0, 0, 0, 0, 0, 0, 0, 0, 0, 31, 0, 0<br/>0, 0, 0, 0, 0, 0, 0, 0, 0]>, fillcolor="#39b4e5"] ;
211 -> 221 ;
222 [label=<dst_host_srv_diff_host_rate &le; 0.03<br/>entropy = 1.5<br/>samples = 8<br/>value = [0, 2, 0, 0, 0, 0, 0, 0, 2, 0, 0, 0, 0, 0<br/>0, 0, 0, 0, 0, 0, 0, 4, 0]>, fillcolor="#f6bdc4"] ;
192 -> 222 ;
223 [label=<service_ftp_data &le; 0.5<br/>entropy = 1.0<br/>samples = 4<br/>value = [0, 2, 0, 0, 0, 0, 0, 0, 2, 0, 0, 0, 0, 0<br/>0, 0, 0, 0, 0, 0, 0, 0, 0]>, fillcolor="#ffffff"] ;
222 -> 223 ;
224 [label=<entropy = 0.0<br/>samples = 2<br/>value = [0, 0, 0, 0, 0, 0, 0, 0, 2, 0, 0, 0, 0, 0<br/>0, 0, 0, 0, 0, 0, 0, 0, 0]>, fillcolor="#39e58f"] ;
223 -> 224 ;
225 [label=<entropy = 0.0<br/>samples = 2<br/>value = [0, 2, 0, 0, 0, 0, 0, 0, 0, 0, 0, 0, 0, 0<br/>0, 0, 0, 0, 0, 0, 0, 0, 0]>, fillcolor="#e5ac39"] ;
223 -> 225 ;
226 [label=<entropy = 0.0<br/>samples = 4<br/>value = [0, 0, 0, 0, 0, 0, 0, 0, 0, 0, 0, 0, 0, 0<br/>0, 0, 0, 0, 0, 0, 0, 4, 0]>, fillcolor="#e5394d"] ;
222 -> 226 ;
227 [label=<num_file_creations &le; 0.05<br/>entropy = 0.149<br/>samples = 252<br/>value = [0, 0, 0, 0, 0, 0, 0, 1, 0, 0, 0, 1, 0, 0<br/>0, 0, 0, 1, 0, 0, 0, 248, 1]>, fillcolor="#e53c50"] ;
149 -> 227 ;
228 [label=<src_bytes &le; 0.0<br/>entropy = 0.075<br/>samples = 250<br/>value = [0, 0, 0, 0, 0, 0, 0, 0, 0, 0, 0, 1, 0, 0<br/>0, 0, 0, 1, 0, 0, 0, 248, 0]>, fillcolor="#e53b4e"] ;
227 -> 228 ;
229 [label=<dst_host_srv_serror_rate &le; 0.025<br/>entropy = 1.0<br/>samples = 2<br/>value = [0, 0, 0, 0, 0, 0, 0, 0, 0, 0, 0, 1, 0, 0<br/>0, 0, 0, 1, 0, 0, 0, 0, 0]>, fillcolor="#ffffff"] ;
228 -> 229 ;
230 [label=<entropy = 0.0<br/>samples = 1<br/>value = [0, 0, 0, 0, 0, 0, 0, 0, 0, 0, 0, 0, 0, 0<br/>0, 0, 0, 1, 0, 0, 0, 0, 0]>, fillcolor="#cb39e5"] ;
229 -> 230 ;
231 [label=<entropy = 0.0<br/>samples = 1<br/>value = [0, 0, 0, 0, 0, 0, 0, 0, 0, 0, 0, 1, 0, 0<br/>0, 0, 0, 0, 0, 0, 0, 0, 0]>, fillcolor="#39b4e5"] ;
229 -> 231 ;
232 [label=<entropy = 0.0<br/>samples = 248<br/>value = [0, 0, 0, 0, 0, 0, 0, 0, 0, 0, 0, 0, 0, 0<br/>0, 0, 0, 0, 0, 0, 0, 248, 0]>, fillcolor="#e5394d"] ;
228 -> 232 ;
233 [label=<dst_host_same_srv_rate &le; 0.125<br/>entropy = 1.0<br/>samples = 2<br/>value = [0, 0, 0, 0, 0, 0, 0, 1, 0, 0, 0, 0, 0, 0<br/>0, 0, 0, 0, 0, 0, 0, 0, 1]>, fillcolor="#ffffff"] ;
227 -> 233 ;
234 [label=<entropy = 0.0<br/>samples = 1<br/>value = [0, 0, 0, 0, 0, 0, 0, 0, 0, 0, 0, 0, 0, 0<br/>0, 0, 0, 0, 0, 0, 0, 0, 1]>, fillcolor="#e55339"] ;
233 -> 234 ;
235 [label=<entropy = 0.0<br/>samples = 1<br/>value = [0, 0, 0, 0, 0, 0, 0, 1, 0, 0, 0, 0, 0, 0<br/>0, 0, 0, 0, 0, 0, 0, 0, 0]>, fillcolor="#39e561"] ;
233 -> 235 ;
236 [label=<dst_bytes &le; 0.0<br/>entropy = 0.106<br/>samples = 323<br/>value = [0, 0, 0, 0, 0, 0, 0, 3, 0, 0, 0, 1, 0, 0<br/>0, 0, 0, 0, 0, 0, 0, 319, 0]>, fillcolor="#e53b4f"] ;
148 -> 236 ;
237 [label=<entropy = 0.0<br/>samples = 319<br/>value = [0, 0, 0, 0, 0, 0, 0, 0, 0, 0, 0, 0, 0, 0<br/>0, 0, 0, 0, 0, 0, 0, 319, 0]>, fillcolor="#e5394d"] ;
236 -> 237 ;
238 [label=<service_telnet &le; 0.5<br/>entropy = 0.811<br/>samples = 4<br/>value = [0, 0, 0, 0, 0, 0, 0, 3, 0, 0, 0, 1, 0, 0<br/>0, 0, 0, 0, 0, 0, 0, 0, 0]>, fillcolor="#7bee96"] ;
236 -> 238 ;
239 [label=<entropy = 0.0<br/>samples = 3<br/>value = [0, 0, 0, 0, 0, 0, 0, 3, 0, 0, 0, 0, 0, 0<br/>0, 0, 0, 0, 0, 0, 0, 0, 0]>, fillcolor="#39e561"] ;
238 -> 239 ;
240 [label=<entropy = 0.0<br/>samples = 1<br/>value = [0, 0, 0, 0, 0, 0, 0, 0, 0, 0, 0, 1, 0, 0<br/>0, 0, 0, 0, 0, 0, 0, 0, 0]>, fillcolor="#39b4e5"] ;
238 -> 240 ;
241 [label=<src_bytes &le; 0.0<br/>entropy = 1.721<br/>samples = 70<br/>value = [46, 12, 1, 0, 1, 0, 0, 1, 2, 0, 0, 1, 0, 0<br/>0, 0, 3, 3, 0, 0, 0, 0, 0]>, fillcolor="#f0b58b"] ;
147 -> 241 ;
242 [label=<hot &le; 0.032<br/>entropy = 2.153<br/>samples = 23<br/>value = [0, 12, 1, 0, 1, 0, 0, 1, 2, 0, 0, 0, 0, 0<br/>0, 0, 3, 3, 0, 0, 0, 0, 0]>, fillcolor="#f3daa6"] ;
241 -> 242 ;
243 [label=<num_root &le; 0.0<br/>entropy = 2.371<br/>samples = 10<br/>value = [0, 1, 1, 0, 1, 0, 0, 1, 0, 0, 0, 0, 0, 0<br/>0, 0, 3, 3, 0, 0, 0, 0, 0]>, fillcolor="#ffffff"] ;
242 -> 243 ;
244 [label=<dst_bytes &le; 0.0<br/>entropy = 1.371<br/>samples = 5<br/>value = [0, 1, 1, 0, 0, 0, 0, 0, 0, 0, 0, 0, 0, 0<br/>0, 0, 0, 3, 0, 0, 0, 0, 0]>, fillcolor="#e59cf2"] ;
243 -> 244 ;
245 [label=<entropy = 0.0<br/>samples = 3<br/>value = [0, 0, 0, 0, 0, 0, 0, 0, 0, 0, 0, 0, 0, 0<br/>0, 0, 0, 3, 0, 0, 0, 0, 0]>, fillcolor="#cb39e5"] ;
244 -> 245 ;
246 [label=<src_bytes &le; 0.0<br/>entropy = 1.0<br/>samples = 2<br/>value = [0, 1, 1, 0, 0, 0, 0, 0, 0, 0, 0, 0, 0, 0<br/>0, 0, 0, 0, 0, 0, 0, 0, 0]>, fillcolor="#ffffff"] ;
244 -> 246 ;
247 [label=<entropy = 0.0<br/>samples = 1<br/>value = [0, 0, 1, 0, 0, 0, 0, 0, 0, 0, 0, 0, 0, 0<br/>0, 0, 0, 0, 0, 0, 0, 0, 0]>, fillcolor="#e5da39"] ;
246 -> 247 ;
248 [label=<entropy = 0.0<br/>samples = 1<br/>value = [0, 1, 0, 0, 0, 0, 0, 0, 0, 0, 0, 0, 0, 0<br/>0, 0, 0, 0, 0, 0, 0, 0, 0]>, fillcolor="#e5ac39"] ;
246 -> 248 ;
249 [label=<dst_host_srv_count &le; 0.008<br/>entropy = 1.371<br/>samples = 5<br/>value = [0, 0, 0, 0, 1, 0, 0, 1, 0, 0, 0, 0, 0, 0<br/>0, 0, 3, 0, 0, 0, 0, 0, 0]>, fillcolor="#ce9cf2"] ;
243 -> 249 ;
250 [label=<dst_bytes &le; 0.0<br/>entropy = 1.0<br/>samples = 2<br/>value = [0, 0, 0, 0, 1, 0, 0, 1, 0, 0, 0, 0, 0, 0<br/>0, 0, 0, 0, 0, 0, 0, 0, 0]>, fillcolor="#ffffff"] ;
249 -> 250 ;
251 [label=<entropy = 0.0<br/>samples = 1<br/>value = [0, 0, 0, 0, 0, 0, 0, 1, 0, 0, 0, 0, 0, 0<br/>0, 0, 0, 0, 0, 0, 0, 0, 0]>, fillcolor="#39e561"] ;
250 -> 251 ;
252 [label=<entropy = 0.0<br/>samples = 1<br/>value = [0, 0, 0, 0, 1, 0, 0, 0, 0, 0, 0, 0, 0, 0<br/>0, 0, 0, 0, 0, 0, 0, 0, 0]>, fillcolor="#98e539"] ;
250 -> 252 ;
253 [label=<entropy = 0.0<br/>samples = 3<br/>value = [0, 0, 0, 0, 0, 0, 0, 0, 0, 0, 0, 0, 0, 0<br/>0, 0, 3, 0, 0, 0, 0, 0, 0]>, fillcolor="#9d39e5"] ;
249 -> 253 ;
254 [label=<num_shells &le; 0.25<br/>entropy = 0.619<br/>samples = 13<br/>value = [0, 11, 0, 0, 0, 0, 0, 0, 2, 0, 0, 0, 0, 0<br/>0, 0, 0, 0, 0, 0, 0, 0, 0]>, fillcolor="#eabb5d"] ;
242 -> 254 ;
255 [label=<entropy = 0.0<br/>samples = 11<br/>value = [0, 11, 0, 0, 0, 0, 0, 0, 0, 0, 0, 0, 0, 0<br/>0, 0, 0, 0, 0, 0, 0, 0, 0]>, fillcolor="#e5ac39"] ;
254 -> 255 ;
256 [label=<entropy = 0.0<br/>samples = 2<br/>value = [0, 0, 0, 0, 0, 0, 0, 0, 2, 0, 0, 0, 0, 0<br/>0, 0, 0, 0, 0, 0, 0, 0, 0]>, fillcolor="#39e58f"] ;
254 -> 256 ;
257 [label=<dst_host_srv_count &le; 0.563<br/>entropy = 0.149<br/>samples = 47<br/>value = [46, 0, 0, 0, 0, 0, 0, 0, 0, 0, 0, 1, 0, 0<br/>0, 0, 0, 0, 0, 0, 0, 0, 0]>, fillcolor="#e6843d"] ;
241 -> 257 ;
258 [label=<entropy = 0.0<br/>samples = 46<br/>value = [46, 0, 0, 0, 0, 0, 0, 0, 0, 0, 0, 0, 0, 0<br/>0, 0, 0, 0, 0, 0, 0, 0, 0]>, fillcolor="#e58139"] ;
257 -> 258 ;
259 [label=<entropy = 0.0<br/>samples = 1<br/>value = [0, 0, 0, 0, 0, 0, 0, 0, 0, 0, 0, 1, 0, 0<br/>0, 0, 0, 0, 0, 0, 0, 0, 0]>, fillcolor="#39b4e5"] ;
257 -> 259 ;
260 [label=<dst_host_count &le; 0.175<br/>entropy = 0.141<br/>samples = 270<br/>value = [0, 0, 0, 0, 1, 0, 0, 0, 0, 1, 0, 266, 0, 0<br/>0, 0, 0, 0, 0, 0, 0, 1, 1]>, fillcolor="#3cb5e5"] ;
98 -> 260 ;
261 [label=<dst_host_count &le; 0.014<br/>entropy = 1.792<br/>samples = 6<br/>value = [0, 0, 0, 0, 1, 0, 0, 0, 0, 1, 0, 3, 0, 0<br/>0, 0, 0, 0, 0, 0, 0, 1, 0]>, fillcolor="#b0e1f5"] ;
260 -> 261 ;
262 [label=<entropy = 0.0<br/>samples = 3<br/>value = [0, 0, 0, 0, 0, 0, 0, 0, 0, 0, 0, 3, 0, 0<br/>0, 0, 0, 0, 0, 0, 0, 0, 0]>, fillcolor="#39b4e5"] ;
261 -> 262 ;
263 [label=<dst_host_srv_serror_rate &le; 0.015<br/>entropy = 1.585<br/>samples = 3<br/>value = [0, 0, 0, 0, 1, 0, 0, 0, 0, 1, 0, 0, 0, 0<br/>0, 0, 0, 0, 0, 0, 0, 1, 0]>, fillcolor="#ffffff"] ;
261 -> 263 ;
264 [label=<entropy = 0.0<br/>samples = 1<br/>value = [0, 0, 0, 0, 0, 0, 0, 0, 0, 1, 0, 0, 0, 0<br/>0, 0, 0, 0, 0, 0, 0, 0, 0]>, fillcolor="#39e5ba"] ;
263 -> 264 ;
265 [label=<duration &le; 0.06<br/>entropy = 1.0<br/>samples = 2<br/>value = [0, 0, 0, 0, 1, 0, 0, 0, 0, 0, 0, 0, 0, 0<br/>0, 0, 0, 0, 0, 0, 0, 1, 0]>, fillcolor="#ffffff"] ;
263 -> 265 ;
266 [label=<entropy = 0.0<br/>samples = 1<br/>value = [0, 0, 0, 0, 1, 0, 0, 0, 0, 0, 0, 0, 0, 0<br/>0, 0, 0, 0, 0, 0, 0, 0, 0]>, fillcolor="#98e539"] ;
265 -> 266 ;
267 [label=<entropy = 0.0<br/>samples = 1<br/>value = [0, 0, 0, 0, 0, 0, 0, 0, 0, 0, 0, 0, 0, 0<br/>0, 0, 0, 0, 0, 0, 0, 1, 0]>, fillcolor="#e5394d"] ;
265 -> 267 ;
268 [label=<service_ftp &le; 0.5<br/>entropy = 0.036<br/>samples = 264<br/>value = [0, 0, 0, 0, 0, 0, 0, 0, 0, 0, 0, 263, 0, 0<br/>0, 0, 0, 0, 0, 0, 0, 0, 1]>, fillcolor="#3ab4e5"] ;
260 -> 268 ;
269 [label=<entropy = 0.0<br/>samples = 263<br/>value = [0, 0, 0, 0, 0, 0, 0, 0, 0, 0, 0, 263, 0, 0<br/>0, 0, 0, 0, 0, 0, 0, 0, 0]>, fillcolor="#39b4e5"] ;
268 -> 269 ;
270 [label=<entropy = 0.0<br/>samples = 1<br/>value = [0, 0, 0, 0, 0, 0, 0, 0, 0, 0, 0, 0, 0, 0<br/>0, 0, 0, 0, 0, 0, 0, 0, 1]>, fillcolor="#e55339"] ;
268 -> 270 ;
271 [label=<dst_host_srv_serror_rate &le; 0.44<br/>entropy = 0.02<br/>samples = 6437<br/>value = [0, 0, 0, 0, 0, 0, 0, 0, 0, 4, 0, 6426, 0, 0<br/>0, 0, 0, 0, 0, 0, 0, 7, 0]>, fillcolor="#39b4e5"] ;
97 -> 271 ;
272 [label=<difficulty &le; 0.786<br/>entropy = 0.012<br/>samples = 6428<br/>value = [0, 0, 0, 0, 0, 0, 0, 0, 0, 0, 0, 6421, 0, 0<br/>0, 0, 0, 0, 0, 0, 0, 7, 0]>, fillcolor="#39b4e5"] ;
271 -> 272 ;
273 [label=<logged_in &le; 0.5<br/>entropy = 0.268<br/>samples = 131<br/>value = [0, 0, 0, 0, 0, 0, 0, 0, 0, 0, 0, 125, 0, 0<br/>0, 0, 0, 0, 0, 0, 0, 6, 0]>, fillcolor="#43b8e6"] ;
272 -> 273 ;
274 [label=<entropy = 0.0<br/>samples = 95<br/>value = [0, 0, 0, 0, 0, 0, 0, 0, 0, 0, 0, 95, 0, 0<br/>0, 0, 0, 0, 0, 0, 0, 0, 0]>, fillcolor="#39b4e5"] ;
273 -> 274 ;
275 [label=<dst_host_srv_diff_host_rate &le; 0.08<br/>entropy = 0.65<br/>samples = 36<br/>value = [0, 0, 0, 0, 0, 0, 0, 0, 0, 0, 0, 30, 0, 0<br/>0, 0, 0, 0, 0, 0, 0, 6, 0]>, fillcolor="#61c3ea"] ;
273 -> 275 ;
276 [label=<hot &le; 0.221<br/>entropy = 0.216<br/>samples = 29<br/>value = [0, 0, 0, 0, 0, 0, 0, 0, 0, 0, 0, 28, 0, 0<br/>0, 0, 0, 0, 0, 0, 0, 1, 0]>, fillcolor="#40b7e6"] ;
275 -> 276 ;
277 [label=<entropy = 0.0<br/>samples = 27<br/>value = [0, 0, 0, 0, 0, 0, 0, 0, 0, 0, 0, 27, 0, 0<br/>0, 0, 0, 0, 0, 0, 0, 0, 0]>, fillcolor="#39b4e5"] ;
276 -> 277 ;
278 [label=<srv_diff_host_rate &le; 0.5<br/>entropy = 1.0<br/>samples = 2<br/>value = [0, 0, 0, 0, 0, 0, 0, 0, 0, 0, 0, 1, 0, 0<br/>0, 0, 0, 0, 0, 0, 0, 1, 0]>, fillcolor="#ffffff"] ;
276 -> 278 ;
279 [label=<entropy = 0.0<br/>samples = 1<br/>value = [0, 0, 0, 0, 0, 0, 0, 0, 0, 0, 0, 0, 0, 0<br/>0, 0, 0, 0, 0, 0, 0, 1, 0]>, fillcolor="#e5394d"] ;
278 -> 279 ;
280 [label=<entropy = 0.0<br/>samples = 1<br/>value = [0, 0, 0, 0, 0, 0, 0, 0, 0, 0, 0, 1, 0, 0<br/>0, 0, 0, 0, 0, 0, 0, 0, 0]>, fillcolor="#39b4e5"] ;
278 -> 280 ;
281 [label=<service_ftp_data &le; 0.5<br/>entropy = 0.863<br/>samples = 7<br/>value = [0, 0, 0, 0, 0, 0, 0, 0, 0, 0, 0, 2, 0, 0<br/>0, 0, 0, 0, 0, 0, 0, 5, 0]>, fillcolor="#ef8894"] ;
275 -> 281 ;
282 [label=<entropy = 0.0<br/>samples = 2<br/>value = [0, 0, 0, 0, 0, 0, 0, 0, 0, 0, 0, 2, 0, 0<br/>0, 0, 0, 0, 0, 0, 0, 0, 0]>, fillcolor="#39b4e5"] ;
281 -> 282 ;
283 [label=<entropy = 0.0<br/>samples = 5<br/>value = [0, 0, 0, 0, 0, 0, 0, 0, 0, 0, 0, 0, 0, 0<br/>0, 0, 0, 0, 0, 0, 0, 5, 0]>, fillcolor="#e5394d"] ;
281 -> 283 ;
284 [label=<dst_host_srv_diff_host_rate &le; 0.11<br/>entropy = 0.002<br/>samples = 6297<br/>value = [0, 0, 0, 0, 0, 0, 0, 0, 0, 0, 0, 6296, 0, 0<br/>0, 0, 0, 0, 0, 0, 0, 1, 0]>, fillcolor="#39b4e5"] ;
272 -> 284 ;
285 [label=<entropy = 0.0<br/>samples = 6145<br/>value = [0, 0, 0, 0, 0, 0, 0, 0, 0, 0, 0, 6145, 0, 0<br/>0, 0, 0, 0, 0, 0, 0, 0, 0]>, fillcolor="#39b4e5"] ;
284 -> 285 ;
286 [label=<dst_host_srv_count &le; 0.149<br/>entropy = 0.057<br/>samples = 152<br/>value = [0, 0, 0, 0, 0, 0, 0, 0, 0, 0, 0, 151, 0, 0<br/>0, 0, 0, 0, 0, 0, 0, 1, 0]>, fillcolor="#3ab4e5"] ;
284 -> 286 ;
287 [label=<entropy = 0.0<br/>samples = 149<br/>value = [0, 0, 0, 0, 0, 0, 0, 0, 0, 0, 0, 149, 0, 0<br/>0, 0, 0, 0, 0, 0, 0, 0, 0]>, fillcolor="#39b4e5"] ;
286 -> 287 ;
288 [label=<difficulty &le; 0.833<br/>entropy = 0.918<br/>samples = 3<br/>value = [0, 0, 0, 0, 0, 0, 0, 0, 0, 0, 0, 2, 0, 0<br/>0, 0, 0, 0, 0, 0, 0, 1, 0]>, fillcolor="#9cdaf2"] ;
286 -> 288 ;
289 [label=<entropy = 0.0<br/>samples = 1<br/>value = [0, 0, 0, 0, 0, 0, 0, 0, 0, 0, 0, 0, 0, 0<br/>0, 0, 0, 0, 0, 0, 0, 1, 0]>, fillcolor="#e5394d"] ;
288 -> 289 ;
290 [label=<entropy = 0.0<br/>samples = 2<br/>value = [0, 0, 0, 0, 0, 0, 0, 0, 0, 0, 0, 2, 0, 0<br/>0, 0, 0, 0, 0, 0, 0, 0, 0]>, fillcolor="#39b4e5"] ;
288 -> 290 ;
291 [label=<srv_serror_rate &le; 0.165<br/>entropy = 0.991<br/>samples = 9<br/>value = [0, 0, 0, 0, 0, 0, 0, 0, 0, 4, 0, 5, 0, 0<br/>0, 0, 0, 0, 0, 0, 0, 0, 0]>, fillcolor="#d7f0fa"] ;
271 -> 291 ;
292 [label=<entropy = 0.0<br/>samples = 5<br/>value = [0, 0, 0, 0, 0, 0, 0, 0, 0, 0, 0, 5, 0, 0<br/>0, 0, 0, 0, 0, 0, 0, 0, 0]>, fillcolor="#39b4e5"] ;
291 -> 292 ;
293 [label=<entropy = 0.0<br/>samples = 4<br/>value = [0, 0, 0, 0, 0, 0, 0, 0, 0, 4, 0, 0, 0, 0<br/>0, 0, 0, 0, 0, 0, 0, 0, 0]>, fillcolor="#39e5ba"] ;
291 -> 293 ;
294 [label=<flag_S0 &le; 0.5<br/>entropy = 1.154<br/>samples = 876<br/>value = [0, 0, 0, 1, 8, 0, 9, 0, 0, 630, 33, 194, 0<br/>0, 0, 0, 0, 0, 0, 0, 0, 1, 0]>, fillcolor="#80eed3"] ;
96 -> 294 ;
295 [label=<flag_SH &le; 0.5<br/>entropy = 0.9<br/>samples = 223<br/>value = [0, 0, 0, 1, 8, 0, 0, 0, 0, 0, 33, 180, 0, 0<br/>0, 0, 0, 0, 0, 0, 0, 1, 0]>, fillcolor="#66c5eb"] ;
294 -> 295 ;
296 [label=<service_imap4 &le; 0.5<br/>entropy = 0.273<br/>samples = 187<br/>value = [0, 0, 0, 1, 5, 0, 0, 0, 0, 0, 0, 180, 0, 0<br/>0, 0, 0, 0, 0, 0, 0, 1, 0]>, fillcolor="#41b7e6"] ;
295 -> 296 ;
297 [label=<num_failed_logins &le; 0.125<br/>entropy = 0.098<br/>samples = 182<br/>value = [0, 0, 0, 1, 0, 0, 0, 0, 0, 0, 0, 180, 0, 0<br/>0, 0, 0, 0, 0, 0, 0, 1, 0]>, fillcolor="#3bb5e5"] ;
296 -> 297 ;
298 [label=<service_ftp_data &le; 0.5<br/>entropy = 0.049<br/>samples = 181<br/>value = [0, 0, 0, 0, 0, 0, 0, 0, 0, 0, 0, 180, 0, 0<br/>0, 0, 0, 0, 0, 0, 0, 1, 0]>, fillcolor="#3ab4e5"] ;
297 -> 298 ;
299 [label=<entropy = 0.0<br/>samples = 175<br/>value = [0, 0, 0, 0, 0, 0, 0, 0, 0, 0, 0, 175, 0, 0<br/>0, 0, 0, 0, 0, 0, 0, 0, 0]>, fillcolor="#39b4e5"] ;
298 -> 299 ;
300 [label=<dst_host_diff_srv_rate &le; 0.01<br/>entropy = 0.65<br/>samples = 6<br/>value = [0, 0, 0, 0, 0, 0, 0, 0, 0, 0, 0, 5, 0, 0<br/>0, 0, 0, 0, 0, 0, 0, 1, 0]>, fillcolor="#61c3ea"] ;
298 -> 300 ;
301 [label=<entropy = 0.0<br/>samples = 1<br/>value = [0, 0, 0, 0, 0, 0, 0, 0, 0, 0, 0, 0, 0, 0<br/>0, 0, 0, 0, 0, 0, 0, 1, 0]>, fillcolor="#e5394d"] ;
300 -> 301 ;
302 [label=<entropy = 0.0<br/>samples = 5<br/>value = [0, 0, 0, 0, 0, 0, 0, 0, 0, 0, 0, 5, 0, 0<br/>0, 0, 0, 0, 0, 0, 0, 0, 0]>, fillcolor="#39b4e5"] ;
300 -> 302 ;
303 [label=<entropy = 0.0<br/>samples = 1<br/>value = [0, 0, 0, 1, 0, 0, 0, 0, 0, 0, 0, 0, 0, 0<br/>0, 0, 0, 0, 0, 0, 0, 0, 0]>, fillcolor="#c5e539"] ;
297 -> 303 ;
304 [label=<entropy = 0.0<br/>samples = 5<br/>value = [0, 0, 0, 0, 5, 0, 0, 0, 0, 0, 0, 0, 0, 0<br/>0, 0, 0, 0, 0, 0, 0, 0, 0]>, fillcolor="#98e539"] ;
296 -> 304 ;
305 [label=<dst_host_diff_srv_rate &le; 0.37<br/>entropy = 0.414<br/>samples = 36<br/>value = [0, 0, 0, 0, 3, 0, 0, 0, 0, 0, 33, 0, 0, 0<br/>0, 0, 0, 0, 0, 0, 0, 0, 0]>, fillcolor="#4be5e7"] ;
295 -> 305 ;
306 [label=<entropy = 0.0<br/>samples = 3<br/>value = [0, 0, 0, 0, 3, 0, 0, 0, 0, 0, 0, 0, 0, 0<br/>0, 0, 0, 0, 0, 0, 0, 0, 0]>, fillcolor="#98e539"] ;
305 -> 306 ;
307 [label=<entropy = 0.0<br/>samples = 33<br/>value = [0, 0, 0, 0, 0, 0, 0, 0, 0, 0, 33, 0, 0, 0<br/>0, 0, 0, 0, 0, 0, 0, 0, 0]>, fillcolor="#39e2e5"] ;
305 -> 307 ;
308 [label=<dst_host_count &le; 0.01<br/>entropy = 0.254<br/>samples = 653<br/>value = [0, 0, 0, 0, 0, 0, 9, 0, 0, 630, 0, 14, 0, 0<br/>0, 0, 0, 0, 0, 0, 0, 0, 0]>, fillcolor="#40e6bc"] ;
294 -> 308 ;
309 [label=<serror_rate &le; 0.835<br/>entropy = 1.378<br/>samples = 19<br/>value = [0, 0, 0, 0, 0, 0, 8, 0, 0, 2, 0, 9, 0, 0<br/>0, 0, 0, 0, 0, 0, 0, 0, 0]>, fillcolor="#edf8fd"] ;
308 -> 309 ;
310 [label=<entropy = 0.0<br/>samples = 2<br/>value = [0, 0, 0, 0, 0, 0, 0, 0, 0, 2, 0, 0, 0, 0<br/>0, 0, 0, 0, 0, 0, 0, 0, 0]>, fillcolor="#39e5ba"] ;
309 -> 310 ;
311 [label=<dst_host_srv_serror_rate &le; 0.105<br/>entropy = 0.998<br/>samples = 17<br/>value = [0, 0, 0, 0, 0, 0, 8, 0, 0, 0, 0, 9, 0, 0<br/>0, 0, 0, 0, 0, 0, 0, 0, 0]>, fillcolor="#e9f7fc"] ;
309 -> 311 ;
312 [label=<entropy = 0.0<br/>samples = 5<br/>value = [0, 0, 0, 0, 0, 0, 0, 0, 0, 0, 0, 5, 0, 0<br/>0, 0, 0, 0, 0, 0, 0, 0, 0]>, fillcolor="#39b4e5"] ;
311 -> 312 ;
313 [label=<difficulty &le; 0.429<br/>entropy = 0.918<br/>samples = 12<br/>value = [0, 0, 0, 0, 0, 0, 8, 0, 0, 0, 0, 4, 0, 0<br/>0, 0, 0, 0, 0, 0, 0, 0, 0]>, fillcolor="#9ff29c"] ;
311 -> 313 ;
314 [label=<entropy = 0.0<br/>samples = 4<br/>value = [0, 0, 0, 0, 0, 0, 0, 0, 0, 0, 0, 4, 0, 0<br/>0, 0, 0, 0, 0, 0, 0, 0, 0]>, fillcolor="#39b4e5"] ;
313 -> 314 ;
315 [label=<entropy = 0.0<br/>samples = 8<br/>value = [0, 0, 0, 0, 0, 0, 8, 0, 0, 0, 0, 0, 0, 0<br/>0, 0, 0, 0, 0, 0, 0, 0, 0]>, fillcolor="#3fe539"] ;
313 -> 315 ;
316 [label=<dst_host_srv_count &le; 0.802<br/>entropy = 0.083<br/>samples = 634<br/>value = [0, 0, 0, 0, 0, 0, 1, 0, 0, 628, 0, 5, 0, 0<br/>0, 0, 0, 0, 0, 0, 0, 0, 0]>, fillcolor="#3be5bb"] ;
308 -> 316 ;
317 [label=<dst_host_serror_rate &le; 0.59<br/>entropy = 0.048<br/>samples = 631<br/>value = [0, 0, 0, 0, 0, 0, 1, 0, 0, 628, 0, 2, 0, 0<br/>0, 0, 0, 0, 0, 0, 0, 0, 0]>, fillcolor="#3ae5ba"] ;
316 -> 317 ;
318 [label=<dst_host_serror_rate &le; 0.27<br/>entropy = 1.522<br/>samples = 5<br/>value = [0, 0, 0, 0, 0, 0, 1, 0, 0, 2, 0, 2, 0, 0<br/>0, 0, 0, 0, 0, 0, 0, 0, 0]>, fillcolor="#ffffff"] ;
317 -> 318 ;
319 [label=<entropy = 0.0<br/>samples = 2<br/>value = [0, 0, 0, 0, 0, 0, 0, 0, 0, 0, 0, 2, 0, 0<br/>0, 0, 0, 0, 0, 0, 0, 0, 0]>, fillcolor="#39b4e5"] ;
318 -> 319 ;
320 [label=<service_finger &le; 0.5<br/>entropy = 0.918<br/>samples = 3<br/>value = [0, 0, 0, 0, 0, 0, 1, 0, 0, 2, 0, 0, 0, 0<br/>0, 0, 0, 0, 0, 0, 0, 0, 0]>, fillcolor="#9cf2dc"] ;
318 -> 320 ;
321 [label=<entropy = 0.0<br/>samples = 2<br/>value = [0, 0, 0, 0, 0, 0, 0, 0, 0, 2, 0, 0, 0, 0<br/>0, 0, 0, 0, 0, 0, 0, 0, 0]>, fillcolor="#39e5ba"] ;
320 -> 321 ;
322 [label=<entropy = 0.0<br/>samples = 1<br/>value = [0, 0, 0, 0, 0, 0, 1, 0, 0, 0, 0, 0, 0, 0<br/>0, 0, 0, 0, 0, 0, 0, 0, 0]>, fillcolor="#3fe539"] ;
320 -> 322 ;
323 [label=<entropy = 0.0<br/>samples = 626<br/>value = [0, 0, 0, 0, 0, 0, 0, 0, 0, 626, 0, 0, 0, 0<br/>0, 0, 0, 0, 0, 0, 0, 0, 0]>, fillcolor="#39e5ba"] ;
317 -> 323 ;
324 [label=<entropy = 0.0<br/>samples = 3<br/>value = [0, 0, 0, 0, 0, 0, 0, 0, 0, 0, 0, 3, 0, 0<br/>0, 0, 0, 0, 0, 0, 0, 0, 0]>, fillcolor="#39b4e5"] ;
316 -> 324 ;
325 [label=<wrong_fragment &le; 0.167<br/>entropy = 1.922<br/>samples = 1552<br/>value = [0, 0, 0, 0, 0, 0, 0, 0, 0, 17, 358, 84, 0, 0<br/>0, 23, 0, 445, 0, 0, 625, 0, 0]>, fillcolor="#fbdfe9"] ;
95 -> 325 ;
326 [label=<dst_host_count &le; 0.998<br/>entropy = 1.59<br/>samples = 927<br/>value = [0, 0, 0, 0, 0, 0, 0, 0, 0, 17, 358, 84, 0, 0<br/>0, 23, 0, 445, 0, 0, 0, 0, 0]>, fillcolor="#f7e1fb"] ;
325 -> 326 ;
327 [label=<dst_host_same_src_port_rate &le; 0.775<br/>entropy = 1.162<br/>samples = 478<br/>value = [0, 0, 0, 0, 0, 0, 0, 0, 0, 0, 358, 70, 0, 0<br/>0, 21, 0, 29, 0, 0, 0, 0, 0]>, fillcolor="#73ebed"] ;
326 -> 327 ;
328 [label=<dst_host_same_srv_rate &le; 0.38<br/>entropy = 1.89<br/>samples = 156<br/>value = [0, 0, 0, 0, 0, 0, 0, 0, 0, 0, 46, 60, 0, 0<br/>0, 21, 0, 29, 0, 0, 0, 0, 0]>, fillcolor="#e6f5fc"] ;
327 -> 328 ;
329 [label=<flag_OTH &le; 0.5<br/>entropy = 1.744<br/>samples = 102<br/>value = [0, 0, 0, 0, 0, 0, 0, 0, 0, 0, 46, 6, 0, 0<br/>0, 21, 0, 29, 0, 0, 0, 0, 0]>, fillcolor="#d1f8f9"] ;
328 -> 329 ;
330 [label=<srv_count &le; 0.007<br/>entropy = 1.272<br/>samples = 81<br/>value = [0, 0, 0, 0, 0, 0, 0, 0, 0, 0, 46, 6, 0, 0<br/>0, 0, 0, 29, 0, 0, 0, 0, 0]>, fillcolor="#bef6f6"] ;
329 -> 330 ;
331 [label=<dst_host_same_src_port_rate &le; 0.115<br/>entropy = 0.899<br/>samples = 57<br/>value = [0, 0, 0, 0, 0, 0, 0, 0, 0, 0, 46, 6, 0, 0<br/>0, 0, 0, 5, 0, 0, 0, 0, 0]>, fillcolor="#64e8eb"] ;
330 -> 331 ;
332 [label=<difficulty &le; 0.667<br/>entropy = 1.531<br/>samples = 14<br/>value = [0, 0, 0, 0, 0, 0, 0, 0, 0, 0, 3, 6, 0, 0<br/>0, 0, 0, 5, 0, 0, 0, 0, 0]>, fillcolor="#e9f7fc"] ;
331 -> 332 ;
333 [label=<difficulty &le; 0.405<br/>entropy = 0.954<br/>samples = 8<br/>value = [0, 0, 0, 0, 0, 0, 0, 0, 0, 0, 3, 0, 0, 0<br/>0, 0, 0, 5, 0, 0, 0, 0, 0]>, fillcolor="#eab0f5"] ;
332 -> 333 ;
334 [label=<entropy = 0.0<br/>samples = 3<br/>value = [0, 0, 0, 0, 0, 0, 0, 0, 0, 0, 3, 0, 0, 0<br/>0, 0, 0, 0, 0, 0, 0, 0, 0]>, fillcolor="#39e2e5"] ;
333 -> 334 ;
335 [label=<entropy = 0.0<br/>samples = 5<br/>value = [0, 0, 0, 0, 0, 0, 0, 0, 0, 0, 0, 0, 0, 0<br/>0, 0, 0, 5, 0, 0, 0, 0, 0]>, fillcolor="#cb39e5"] ;
333 -> 335 ;
336 [label=<entropy = 0.0<br/>samples = 6<br/>value = [0, 0, 0, 0, 0, 0, 0, 0, 0, 0, 0, 6, 0, 0<br/>0, 0, 0, 0, 0, 0, 0, 0, 0]>, fillcolor="#39b4e5"] ;
332 -> 336 ;
337 [label=<entropy = 0.0<br/>samples = 43<br/>value = [0, 0, 0, 0, 0, 0, 0, 0, 0, 0, 43, 0, 0, 0<br/>0, 0, 0, 0, 0, 0, 0, 0, 0]>, fillcolor="#39e2e5"] ;
331 -> 337 ;
338 [label=<entropy = 0.0<br/>samples = 24<br/>value = [0, 0, 0, 0, 0, 0, 0, 0, 0, 0, 0, 0, 0, 0<br/>0, 0, 0, 24, 0, 0, 0, 0, 0]>, fillcolor="#cb39e5"] ;
330 -> 338 ;
339 [label=<entropy = 0.0<br/>samples = 21<br/>value = [0, 0, 0, 0, 0, 0, 0, 0, 0, 0, 0, 0, 0, 0<br/>0, 21, 0, 0, 0, 0, 0, 0, 0]>, fillcolor="#6f39e5"] ;
329 -> 339 ;
340 [label=<entropy = 0.0<br/>samples = 54<br/>value = [0, 0, 0, 0, 0, 0, 0, 0, 0, 0, 0, 54, 0, 0<br/>0, 0, 0, 0, 0, 0, 0, 0, 0]>, fillcolor="#39b4e5"] ;
328 -> 340 ;
341 [label=<dst_host_count &le; 0.012<br/>entropy = 0.2<br/>samples = 322<br/>value = [0, 0, 0, 0, 0, 0, 0, 0, 0, 0, 312, 10, 0, 0<br/>0, 0, 0, 0, 0, 0, 0, 0, 0]>, fillcolor="#3fe3e6"] ;
327 -> 341 ;
342 [label=<srv_count &le; 0.003<br/>entropy = 0.544<br/>samples = 8<br/>value = [0, 0, 0, 0, 0, 0, 0, 0, 0, 0, 1, 7, 0, 0<br/>0, 0, 0, 0, 0, 0, 0, 0, 0]>, fillcolor="#55bfe9"] ;
341 -> 342 ;
343 [label=<entropy = 0.0<br/>samples = 6<br/>value = [0, 0, 0, 0, 0, 0, 0, 0, 0, 0, 0, 6, 0, 0<br/>0, 0, 0, 0, 0, 0, 0, 0, 0]>, fillcolor="#39b4e5"] ;
342 -> 343 ;
344 [label=<difficulty &le; 0.69<br/>entropy = 1.0<br/>samples = 2<br/>value = [0, 0, 0, 0, 0, 0, 0, 0, 0, 0, 1, 1, 0, 0<br/>0, 0, 0, 0, 0, 0, 0, 0, 0]>, fillcolor="#ffffff"] ;
342 -> 344 ;
345 [label=<entropy = 0.0<br/>samples = 1<br/>value = [0, 0, 0, 0, 0, 0, 0, 0, 0, 0, 1, 0, 0, 0<br/>0, 0, 0, 0, 0, 0, 0, 0, 0]>, fillcolor="#39e2e5"] ;
344 -> 345 ;
346 [label=<entropy = 0.0<br/>samples = 1<br/>value = [0, 0, 0, 0, 0, 0, 0, 0, 0, 0, 0, 1, 0, 0<br/>0, 0, 0, 0, 0, 0, 0, 0, 0]>, fillcolor="#39b4e5"] ;
344 -> 346 ;
347 [label=<dst_host_count &le; 0.984<br/>entropy = 0.078<br/>samples = 314<br/>value = [0, 0, 0, 0, 0, 0, 0, 0, 0, 0, 311, 3, 0, 0<br/>0, 0, 0, 0, 0, 0, 0, 0, 0]>, fillcolor="#3be2e5"] ;
341 -> 347 ;
348 [label=<entropy = 0.0<br/>samples = 311<br/>value = [0, 0, 0, 0, 0, 0, 0, 0, 0, 0, 311, 0, 0, 0<br/>0, 0, 0, 0, 0, 0, 0, 0, 0]>, fillcolor="#39e2e5"] ;
347 -> 348 ;
349 [label=<entropy = 0.0<br/>samples = 3<br/>value = [0, 0, 0, 0, 0, 0, 0, 0, 0, 0, 0, 3, 0, 0<br/>0, 0, 0, 0, 0, 0, 0, 0, 0]>, fillcolor="#39b4e5"] ;
347 -> 349 ;
350 [label=<dst_host_same_src_port_rate &le; 0.015<br/>entropy = 0.472<br/>samples = 449<br/>value = [0, 0, 0, 0, 0, 0, 0, 0, 0, 17, 0, 14, 0, 0<br/>0, 2, 0, 416, 0, 0, 0, 0, 0]>, fillcolor="#cf48e7"] ;
326 -> 350 ;
351 [label=<dst_host_srv_serror_rate &le; 0.5<br/>entropy = 1.536<br/>samples = 38<br/>value = [0, 0, 0, 0, 0, 0, 0, 0, 0, 17, 0, 12, 0, 0<br/>0, 0, 0, 9, 0, 0, 0, 0, 0]>, fillcolor="#d9faf2"] ;
350 -> 351 ;
352 [label=<dst_host_same_srv_rate &le; 0.5<br/>entropy = 0.985<br/>samples = 21<br/>value = [0, 0, 0, 0, 0, 0, 0, 0, 0, 0, 0, 12, 0, 0<br/>0, 0, 0, 9, 0, 0, 0, 0, 0]>, fillcolor="#ceecf8"] ;
351 -> 352 ;
353 [label=<entropy = 0.0<br/>samples = 9<br/>value = [0, 0, 0, 0, 0, 0, 0, 0, 0, 0, 0, 0, 0, 0<br/>0, 0, 0, 9, 0, 0, 0, 0, 0]>, fillcolor="#cb39e5"] ;
352 -> 353 ;
354 [label=<entropy = 0.0<br/>samples = 12<br/>value = [0, 0, 0, 0, 0, 0, 0, 0, 0, 0, 0, 12, 0, 0<br/>0, 0, 0, 0, 0, 0, 0, 0, 0]>, fillcolor="#39b4e5"] ;
352 -> 354 ;
355 [label=<entropy = 0.0<br/>samples = 17<br/>value = [0, 0, 0, 0, 0, 0, 0, 0, 0, 17, 0, 0, 0, 0<br/>0, 0, 0, 0, 0, 0, 0, 0, 0]>, fillcolor="#39e5ba"] ;
351 -> 355 ;
356 [label=<dst_host_diff_srv_rate &le; 0.015<br/>entropy = 0.089<br/>samples = 411<br/>value = [0, 0, 0, 0, 0, 0, 0, 0, 0, 0, 0, 2, 0, 0<br/>0, 2, 0, 407, 0, 0, 0, 0, 0]>, fillcolor="#cc3be5"] ;
350 -> 356 ;
357 [label=<entropy = 0.0<br/>samples = 2<br/>value = [0, 0, 0, 0, 0, 0, 0, 0, 0, 0, 0, 2, 0, 0<br/>0, 0, 0, 0, 0, 0, 0, 0, 0]>, fillcolor="#39b4e5"] ;
356 -> 357 ;
358 [label=<dst_host_diff_srv_rate &le; 0.995<br/>entropy = 0.045<br/>samples = 409<br/>value = [0, 0, 0, 0, 0, 0, 0, 0, 0, 0, 0, 0, 0, 0<br/>0, 2, 0, 407, 0, 0, 0, 0, 0]>, fillcolor="#cb3ae5"] ;
356 -> 358 ;
359 [label=<entropy = 0.0<br/>samples = 407<br/>value = [0, 0, 0, 0, 0, 0, 0, 0, 0, 0, 0, 0, 0, 0<br/>0, 0, 0, 407, 0, 0, 0, 0, 0]>, fillcolor="#cb39e5"] ;
358 -> 359 ;
360 [label=<entropy = 0.0<br/>samples = 2<br/>value = [0, 0, 0, 0, 0, 0, 0, 0, 0, 0, 0, 0, 0, 0<br/>0, 2, 0, 0, 0, 0, 0, 0, 0]>, fillcolor="#6f39e5"] ;
358 -> 360 ;
361 [label=<entropy = 0.0<br/>samples = 625<br/>value = [0, 0, 0, 0, 0, 0, 0, 0, 0, 0, 0, 0, 0, 0<br/>0, 0, 0, 0, 0, 0, 625, 0, 0]>, fillcolor="#e53978"] ;
325 -> 361 ;
362 [label=<dst_host_same_srv_rate &le; 0.015<br/>entropy = 1.883<br/>samples = 3622<br/>value = [725, 4, 0, 41, 0, 363, 0, 1, 0, 17, 0, 624, 0<br/>0, 0, 1836, 1, 2, 0, 0, 0, 8, 0]>, fillcolor="#c8b3f5"] ;
94 -> 362 ;
363 [label=<dst_host_same_src_port_rate &le; 0.015<br/>entropy = 0.246<br/>samples = 1858<br/>value = [0, 0, 0, 0, 0, 29, 0, 0, 0, 4, 0, 23, 0, 0<br/>0, 1800, 0, 2, 0, 0, 0, 0, 0]>, fillcolor="#743fe6"] ;
362 -> 363 ;
364 [label=<dst_host_rerror_rate &le; 0.87<br/>entropy = 1.835<br/>samples = 67<br/>value = [0, 0, 0, 0, 0, 29, 0, 0, 0, 4, 0, 23, 0, 0<br/>0, 9, 0, 2, 0, 0, 0, 0, 0]>, fillcolor="#ebfbe4"] ;
363 -> 364 ;
365 [label=<service_private &le; 0.5<br/>entropy = 1.129<br/>samples = 34<br/>value = [0, 0, 0, 0, 0, 0, 0, 0, 0, 0, 0, 23, 0, 0<br/>0, 9, 0, 2, 0, 0, 0, 0, 0]>, fillcolor="#90d5f0"] ;
364 -> 365 ;
366 [label=<dst_host_diff_srv_rate &le; 0.27<br/>entropy = 0.25<br/>samples = 24<br/>value = [0, 0, 0, 0, 0, 0, 0, 0, 0, 0, 0, 23, 0, 0<br/>0, 0, 0, 1, 0, 0, 0, 0, 0]>, fillcolor="#42b7e6"] ;
365 -> 366 ;
367 [label=<entropy = 0.0<br/>samples = 22<br/>value = [0, 0, 0, 0, 0, 0, 0, 0, 0, 0, 0, 22, 0, 0<br/>0, 0, 0, 0, 0, 0, 0, 0, 0]>, fillcolor="#39b4e5"] ;
366 -> 367 ;
368 [label=<difficulty &le; 0.476<br/>entropy = 1.0<br/>samples = 2<br/>value = [0, 0, 0, 0, 0, 0, 0, 0, 0, 0, 0, 1, 0, 0<br/>0, 0, 0, 1, 0, 0, 0, 0, 0]>, fillcolor="#ffffff"] ;
366 -> 368 ;
369 [label=<entropy = 0.0<br/>samples = 1<br/>value = [0, 0, 0, 0, 0, 0, 0, 0, 0, 0, 0, 1, 0, 0<br/>0, 0, 0, 0, 0, 0, 0, 0, 0]>, fillcolor="#39b4e5"] ;
368 -> 369 ;
370 [label=<entropy = 0.0<br/>samples = 1<br/>value = [0, 0, 0, 0, 0, 0, 0, 0, 0, 0, 0, 0, 0, 0<br/>0, 0, 0, 1, 0, 0, 0, 0, 0]>, fillcolor="#cb39e5"] ;
368 -> 370 ;
371 [label=<dst_host_diff_srv_rate &le; 0.19<br/>entropy = 0.469<br/>samples = 10<br/>value = [0, 0, 0, 0, 0, 0, 0, 0, 0, 0, 0, 0, 0, 0<br/>0, 9, 0, 1, 0, 0, 0, 0, 0]>, fillcolor="#7f4fe8"] ;
365 -> 371 ;
372 [label=<entropy = 0.0<br/>samples = 9<br/>value = [0, 0, 0, 0, 0, 0, 0, 0, 0, 0, 0, 0, 0, 0<br/>0, 9, 0, 0, 0, 0, 0, 0, 0]>, fillcolor="#6f39e5"] ;
371 -> 372 ;
373 [label=<entropy = 0.0<br/>samples = 1<br/>value = [0, 0, 0, 0, 0, 0, 0, 0, 0, 0, 0, 0, 0, 0<br/>0, 0, 0, 1, 0, 0, 0, 0, 0]>, fillcolor="#cb39e5"] ;
371 -> 373 ;
374 [label=<dst_host_rerror_rate &le; 0.985<br/>entropy = 0.533<br/>samples = 33<br/>value = [0, 0, 0, 0, 0, 29, 0, 0, 0, 4, 0, 0, 0, 0<br/>0, 0, 0, 0, 0, 0, 0, 0, 0]>, fillcolor="#7fe954"] ;
364 -> 374 ;
375 [label=<entropy = 0.0<br/>samples = 29<br/>value = [0, 0, 0, 0, 0, 29, 0, 0, 0, 0, 0, 0, 0, 0<br/>0, 0, 0, 0, 0, 0, 0, 0, 0]>, fillcolor="#6ae539"] ;
374 -> 375 ;
376 [label=<entropy = 0.0<br/>samples = 4<br/>value = [0, 0, 0, 0, 0, 0, 0, 0, 0, 4, 0, 0, 0, 0<br/>0, 0, 0, 0, 0, 0, 0, 0, 0]>, fillcolor="#39e5ba"] ;
374 -> 376 ;
377 [label=<entropy = 0.0<br/>samples = 1791<br/>value = [0, 0, 0, 0, 0, 0, 0, 0, 0, 0, 0, 0, 0, 0<br/>0, 1791, 0, 0, 0, 0, 0, 0, 0]>, fillcolor="#6f39e5"] ;
363 -> 377 ;
378 [label=<src_bytes &le; 0.0<br/>entropy = 1.871<br/>samples = 1764<br/>value = [725, 4, 0, 41, 0, 334, 0, 1, 0, 13, 0, 601, 0<br/>0, 0, 36, 1, 0, 0, 0, 0, 8, 0]>, fillcolor="#fcf2ea"] ;
362 -> 378 ;
379 [label=<dst_host_diff_srv_rate &le; 0.995<br/>entropy = 1.507<br/>samples = 1027<br/>value = [0, 4, 0, 41, 0, 334, 0, 1, 0, 13, 0, 593, 0<br/>0, 0, 34, 1, 0, 0, 0, 0, 6, 0]>, fillcolor="#b5e3f5"] ;
378 -> 379 ;
380 [label=<num_failed_logins &le; 0.125<br/>entropy = 0.99<br/>samples = 701<br/>value = [0, 4, 0, 41, 0, 11, 0, 1, 0, 13, 0, 590, 0<br/>0, 0, 34, 1, 0, 0, 0, 0, 6, 0]>, fillcolor="#5ac1e9"] ;
379 -> 380 ;
381 [label=<service_private &le; 0.5<br/>entropy = 0.734<br/>samples = 651<br/>value = [0, 4, 0, 1, 0, 11, 0, 1, 0, 13, 0, 580, 0, 0<br/>0, 34, 1, 0, 0, 0, 0, 6, 0]>, fillcolor="#50bde8"] ;
380 -> 381 ;
382 [label=<difficulty &le; 0.405<br/>entropy = 0.516<br/>samples = 624<br/>value = [0, 4, 0, 1, 0, 11, 0, 1, 0, 0, 0, 580, 0, 0<br/>0, 20, 1, 0, 0, 0, 0, 6, 0]>, fillcolor="#47b9e7"] ;
381 -> 382 ;
383 [label=<dst_host_rerror_rate &le; 0.615<br/>entropy = 2.456<br/>samples = 44<br/>value = [0, 4, 0, 1, 0, 10, 0, 1, 0, 0, 0, 11, 0, 0<br/>0, 13, 1, 0, 0, 0, 0, 3, 0]>, fillcolor="#f6f3fd"] ;
382 -> 383 ;
384 [label=<dst_host_rerror_rate &le; 0.075<br/>entropy = 1.909<br/>samples = 32<br/>value = [0, 4, 0, 0, 0, 0, 0, 1, 0, 0, 0, 11, 0, 0<br/>0, 13, 0, 0, 0, 0, 0, 3, 0]>, fillcolor="#f1ecfd"] ;
383 -> 384 ;
385 [label=<hot &le; 0.013<br/>entropy = 0.773<br/>samples = 13<br/>value = [0, 0, 0, 0, 0, 0, 0, 1, 0, 0, 0, 11, 0, 0<br/>0, 0, 0, 0, 0, 0, 0, 1, 0]>, fillcolor="#5ac1e9"] ;
384 -> 385 ;
386 [label=<entropy = 0.0<br/>samples = 11<br/>value = [0, 0, 0, 0, 0, 0, 0, 0, 0, 0, 0, 11, 0, 0<br/>0, 0, 0, 0, 0, 0, 0, 0, 0]>, fillcolor="#39b4e5"] ;
385 -> 386 ;
387 [label=<is_guest_login &le; 0.5<br/>entropy = 1.0<br/>samples = 2<br/>value = [0, 0, 0, 0, 0, 0, 0, 1, 0, 0, 0, 0, 0, 0<br/>0, 0, 0, 0, 0, 0, 0, 1, 0]>, fillcolor="#ffffff"] ;
385 -> 387 ;
388 [label=<entropy = 0.0<br/>samples = 1<br/>value = [0, 0, 0, 0, 0, 0, 0, 1, 0, 0, 0, 0, 0, 0<br/>0, 0, 0, 0, 0, 0, 0, 0, 0]>, fillcolor="#39e561"] ;
387 -> 388 ;
389 [label=<entropy = 0.0<br/>samples = 1<br/>value = [0, 0, 0, 0, 0, 0, 0, 0, 0, 0, 0, 0, 0, 0<br/>0, 0, 0, 0, 0, 0, 0, 1, 0]>, fillcolor="#e5394d"] ;
387 -> 389 ;
390 [label=<srv_rerror_rate &le; 0.085<br/>entropy = 1.19<br/>samples = 19<br/>value = [0, 4, 0, 0, 0, 0, 0, 0, 0, 0, 0, 0, 0, 0<br/>0, 13, 0, 0, 0, 0, 0, 2, 0]>, fillcolor="#a988ef"] ;
384 -> 390 ;
391 [label=<dst_host_srv_rerror_rate &le; 0.06<br/>entropy = 0.918<br/>samples = 6<br/>value = [0, 4, 0, 0, 0, 0, 0, 0, 0, 0, 0, 0, 0, 0<br/>0, 0, 0, 0, 0, 0, 0, 2, 0]>, fillcolor="#f2d69c"] ;
390 -> 391 ;
392 [label=<entropy = 0.0<br/>samples = 2<br/>value = [0, 0, 0, 0, 0, 0, 0, 0, 0, 0, 0, 0, 0, 0<br/>0, 0, 0, 0, 0, 0, 0, 2, 0]>, fillcolor="#e5394d"] ;
391 -> 392 ;
393 [label=<entropy = 0.0<br/>samples = 4<br/>value = [0, 4, 0, 0, 0, 0, 0, 0, 0, 0, 0, 0, 0, 0<br/>0, 0, 0, 0, 0, 0, 0, 0, 0]>, fillcolor="#e5ac39"] ;
391 -> 393 ;
394 [label=<entropy = 0.0<br/>samples = 13<br/>value = [0, 0, 0, 0, 0, 0, 0, 0, 0, 0, 0, 0, 0, 0<br/>0, 13, 0, 0, 0, 0, 0, 0, 0]>, fillcolor="#6f39e5"] ;
390 -> 394 ;
395 [label=<dst_host_srv_serror_rate &le; 0.02<br/>entropy = 0.817<br/>samples = 12<br/>value = [0, 0, 0, 1, 0, 10, 0, 0, 0, 0, 0, 0, 0, 0<br/>0, 0, 1, 0, 0, 0, 0, 0, 0]>, fillcolor="#85ea5d"] ;
383 -> 395 ;
396 [label=<entropy = 0.0<br/>samples = 10<br/>value = [0, 0, 0, 0, 0, 10, 0, 0, 0, 0, 0, 0, 0, 0<br/>0, 0, 0, 0, 0, 0, 0, 0, 0]>, fillcolor="#6ae539"] ;
395 -> 396 ;
397 [label=<dst_host_srv_rerror_rate &le; 0.595<br/>entropy = 1.0<br/>samples = 2<br/>value = [0, 0, 0, 1, 0, 0, 0, 0, 0, 0, 0, 0, 0, 0<br/>0, 0, 1, 0, 0, 0, 0, 0, 0]>, fillcolor="#ffffff"] ;
395 -> 397 ;
398 [label=<entropy = 0.0<br/>samples = 1<br/>value = [0, 0, 0, 0, 0, 0, 0, 0, 0, 0, 0, 0, 0, 0<br/>0, 0, 1, 0, 0, 0, 0, 0, 0]>, fillcolor="#9d39e5"] ;
397 -> 398 ;
399 [label=<entropy = 0.0<br/>samples = 1<br/>value = [0, 0, 0, 1, 0, 0, 0, 0, 0, 0, 0, 0, 0, 0<br/>0, 0, 0, 0, 0, 0, 0, 0, 0]>, fillcolor="#c5e539"] ;
397 -> 399 ;
400 [label=<service_ftp_data &le; 0.5<br/>entropy = 0.159<br/>samples = 580<br/>value = [0, 0, 0, 0, 0, 1, 0, 0, 0, 0, 0, 569, 0, 0<br/>0, 7, 0, 0, 0, 0, 0, 3, 0]>, fillcolor="#3db5e5"] ;
382 -> 400 ;
401 [label=<dst_host_same_srv_rate &le; 0.025<br/>entropy = 0.084<br/>samples = 573<br/>value = [0, 0, 0, 0, 0, 0, 0, 0, 0, 0, 0, 567, 0, 0<br/>0, 6, 0, 0, 0, 0, 0, 0, 0]>, fillcolor="#3bb5e5"] ;
400 -> 401 ;
402 [label=<dst_host_diff_srv_rate &le; 0.15<br/>entropy = 0.811<br/>samples = 20<br/>value = [0, 0, 0, 0, 0, 0, 0, 0, 0, 0, 0, 15, 0, 0<br/>0, 5, 0, 0, 0, 0, 0, 0, 0]>, fillcolor="#7bcdee"] ;
401 -> 402 ;
403 [label=<entropy = 0.0<br/>samples = 15<br/>value = [0, 0, 0, 0, 0, 0, 0, 0, 0, 0, 0, 15, 0, 0<br/>0, 0, 0, 0, 0, 0, 0, 0, 0]>, fillcolor="#39b4e5"] ;
402 -> 403 ;
404 [label=<entropy = 0.0<br/>samples = 5<br/>value = [0, 0, 0, 0, 0, 0, 0, 0, 0, 0, 0, 0, 0, 0<br/>0, 5, 0, 0, 0, 0, 0, 0, 0]>, fillcolor="#6f39e5"] ;
402 -> 404 ;
405 [label=<flag_RSTR &le; 0.5<br/>entropy = 0.019<br/>samples = 553<br/>value = [0, 0, 0, 0, 0, 0, 0, 0, 0, 0, 0, 552, 0, 0<br/>0, 1, 0, 0, 0, 0, 0, 0, 0]>, fillcolor="#39b4e5"] ;
401 -> 405 ;
406 [label=<entropy = 0.0<br/>samples = 515<br/>value = [0, 0, 0, 0, 0, 0, 0, 0, 0, 0, 0, 515, 0, 0<br/>0, 0, 0, 0, 0, 0, 0, 0, 0]>, fillcolor="#39b4e5"] ;
405 -> 406 ;
407 [label=<duration &le; 0.0<br/>entropy = 0.176<br/>samples = 38<br/>value = [0, 0, 0, 0, 0, 0, 0, 0, 0, 0, 0, 37, 0, 0<br/>0, 1, 0, 0, 0, 0, 0, 0, 0]>, fillcolor="#3eb6e6"] ;
405 -> 407 ;
408 [label=<src_bytes &le; 0.0<br/>entropy = 1.0<br/>samples = 2<br/>value = [0, 0, 0, 0, 0, 0, 0, 0, 0, 0, 0, 1, 0, 0<br/>0, 1, 0, 0, 0, 0, 0, 0, 0]>, fillcolor="#ffffff"] ;
407 -> 408 ;
409 [label=<entropy = 0.0<br/>samples = 1<br/>value = [0, 0, 0, 0, 0, 0, 0, 0, 0, 0, 0, 0, 0, 0<br/>0, 1, 0, 0, 0, 0, 0, 0, 0]>, fillcolor="#6f39e5"] ;
408 -> 409 ;
410 [label=<entropy = 0.0<br/>samples = 1<br/>value = [0, 0, 0, 0, 0, 0, 0, 0, 0, 0, 0, 1, 0, 0<br/>0, 0, 0, 0, 0, 0, 0, 0, 0]>, fillcolor="#39b4e5"] ;
408 -> 410 ;
411 [label=<entropy = 0.0<br/>samples = 36<br/>value = [0, 0, 0, 0, 0, 0, 0, 0, 0, 0, 0, 36, 0, 0<br/>0, 0, 0, 0, 0, 0, 0, 0, 0]>, fillcolor="#39b4e5"] ;
407 -> 411 ;
412 [label=<dst_host_srv_diff_host_rate &le; 0.12<br/>entropy = 1.842<br/>samples = 7<br/>value = [0, 0, 0, 0, 0, 1, 0, 0, 0, 0, 0, 2, 0, 0<br/>0, 1, 0, 0, 0, 0, 0, 3, 0]>, fillcolor="#fad7db"] ;
400 -> 412 ;
413 [label=<dst_host_same_src_port_rate &le; 0.31<br/>entropy = 1.5<br/>samples = 4<br/>value = [0, 0, 0, 0, 0, 1, 0, 0, 0, 0, 0, 2, 0, 0<br/>0, 1, 0, 0, 0, 0, 0, 0, 0]>, fillcolor="#bde6f6"] ;
412 -> 413 ;
414 [label=<entropy = 0.0<br/>samples = 2<br/>value = [0, 0, 0, 0, 0, 0, 0, 0, 0, 0, 0, 2, 0, 0<br/>0, 0, 0, 0, 0, 0, 0, 0, 0]>, fillcolor="#39b4e5"] ;
413 -> 414 ;
415 [label=<dst_host_diff_srv_rate &le; 0.3<br/>entropy = 1.0<br/>samples = 2<br/>value = [0, 0, 0, 0, 0, 1, 0, 0, 0, 0, 0, 0, 0, 0<br/>0, 1, 0, 0, 0, 0, 0, 0, 0]>, fillcolor="#ffffff"] ;
413 -> 415 ;
416 [label=<entropy = 0.0<br/>samples = 1<br/>value = [0, 0, 0, 0, 0, 1, 0, 0, 0, 0, 0, 0, 0, 0<br/>0, 0, 0, 0, 0, 0, 0, 0, 0]>, fillcolor="#6ae539"] ;
415 -> 416 ;
417 [label=<entropy = 0.0<br/>samples = 1<br/>value = [0, 0, 0, 0, 0, 0, 0, 0, 0, 0, 0, 0, 0, 0<br/>0, 1, 0, 0, 0, 0, 0, 0, 0]>, fillcolor="#6f39e5"] ;
415 -> 417 ;
418 [label=<entropy = 0.0<br/>samples = 3<br/>value = [0, 0, 0, 0, 0, 0, 0, 0, 0, 0, 0, 0, 0, 0<br/>0, 0, 0, 0, 0, 0, 0, 3, 0]>, fillcolor="#e5394d"] ;
412 -> 418 ;
419 [label=<dst_host_rerror_rate &le; 0.63<br/>entropy = 0.999<br/>samples = 27<br/>value = [0, 0, 0, 0, 0, 0, 0, 0, 0, 13, 0, 0, 0, 0<br/>0, 14, 0, 0, 0, 0, 0, 0, 0]>, fillcolor="#f5f1fd"] ;
381 -> 419 ;
420 [label=<entropy = 0.0<br/>samples = 14<br/>value = [0, 0, 0, 0, 0, 0, 0, 0, 0, 0, 0, 0, 0, 0<br/>0, 14, 0, 0, 0, 0, 0, 0, 0]>, fillcolor="#6f39e5"] ;
419 -> 420 ;
421 [label=<entropy = 0.0<br/>samples = 13<br/>value = [0, 0, 0, 0, 0, 0, 0, 0, 0, 13, 0, 0, 0, 0<br/>0, 0, 0, 0, 0, 0, 0, 0, 0]>, fillcolor="#39e5ba"] ;
419 -> 421 ;
422 [label=<dst_host_diff_srv_rate &le; 0.01<br/>entropy = 0.722<br/>samples = 50<br/>value = [0, 0, 0, 40, 0, 0, 0, 0, 0, 0, 0, 10, 0, 0<br/>0, 0, 0, 0, 0, 0, 0, 0, 0]>, fillcolor="#d4ec6a"] ;
380 -> 422 ;
423 [label=<entropy = 0.0<br/>samples = 40<br/>value = [0, 0, 0, 40, 0, 0, 0, 0, 0, 0, 0, 0, 0, 0<br/>0, 0, 0, 0, 0, 0, 0, 0, 0]>, fillcolor="#c5e539"] ;
422 -> 423 ;
424 [label=<entropy = 0.0<br/>samples = 10<br/>value = [0, 0, 0, 0, 0, 0, 0, 0, 0, 0, 0, 10, 0, 0<br/>0, 0, 0, 0, 0, 0, 0, 0, 0]>, fillcolor="#39b4e5"] ;
422 -> 424 ;
425 [label=<dst_host_rerror_rate &le; 0.535<br/>entropy = 0.075<br/>samples = 326<br/>value = [0, 0, 0, 0, 0, 323, 0, 0, 0, 0, 0, 3, 0, 0<br/>0, 0, 0, 0, 0, 0, 0, 0, 0]>, fillcolor="#6be53b"] ;
379 -> 425 ;
426 [label=<rerror_rate &le; 0.5<br/>entropy = 0.811<br/>samples = 4<br/>value = [0, 0, 0, 0, 0, 1, 0, 0, 0, 0, 0, 3, 0, 0<br/>0, 0, 0, 0, 0, 0, 0, 0, 0]>, fillcolor="#7bcdee"] ;
425 -> 426 ;
427 [label=<entropy = 0.0<br/>samples = 1<br/>value = [0, 0, 0, 0, 0, 1, 0, 0, 0, 0, 0, 0, 0, 0<br/>0, 0, 0, 0, 0, 0, 0, 0, 0]>, fillcolor="#6ae539"] ;
426 -> 427 ;
428 [label=<entropy = 0.0<br/>samples = 3<br/>value = [0, 0, 0, 0, 0, 0, 0, 0, 0, 0, 0, 3, 0, 0<br/>0, 0, 0, 0, 0, 0, 0, 0, 0]>, fillcolor="#39b4e5"] ;
426 -> 428 ;
429 [label=<entropy = 0.0<br/>samples = 322<br/>value = [0, 0, 0, 0, 0, 322, 0, 0, 0, 0, 0, 0, 0, 0<br/>0, 0, 0, 0, 0, 0, 0, 0, 0]>, fillcolor="#6ae539"] ;
425 -> 429 ;
430 [label=<service_http &le; 0.5<br/>entropy = 0.14<br/>samples = 737<br/>value = [725, 0, 0, 0, 0, 0, 0, 0, 0, 0, 0, 8, 0, 0<br/>0, 2, 0, 0, 0, 0, 0, 2, 0]>, fillcolor="#e5833c"] ;
378 -> 430 ;
431 [label=<src_bytes &le; 0.002<br/>entropy = 1.252<br/>samples = 12<br/>value = [0, 0, 0, 0, 0, 0, 0, 0, 0, 0, 0, 8, 0, 0<br/>0, 2, 0, 0, 0, 0, 0, 2, 0]>, fillcolor="#88d2ef"] ;
430 -> 431 ;
432 [label=<entropy = 0.0<br/>samples = 8<br/>value = [0, 0, 0, 0, 0, 0, 0, 0, 0, 0, 0, 8, 0, 0<br/>0, 0, 0, 0, 0, 0, 0, 0, 0]>, fillcolor="#39b4e5"] ;
431 -> 432 ;
433 [label=<logged_in &le; 0.5<br/>entropy = 1.0<br/>samples = 4<br/>value = [0, 0, 0, 0, 0, 0, 0, 0, 0, 0, 0, 0, 0, 0<br/>0, 2, 0, 0, 0, 0, 0, 2, 0]>, fillcolor="#ffffff"] ;
431 -> 433 ;
434 [label=<entropy = 0.0<br/>samples = 2<br/>value = [0, 0, 0, 0, 0, 0, 0, 0, 0, 0, 0, 0, 0, 0<br/>0, 2, 0, 0, 0, 0, 0, 0, 0]>, fillcolor="#6f39e5"] ;
433 -> 434 ;
435 [label=<entropy = 0.0<br/>samples = 2<br/>value = [0, 0, 0, 0, 0, 0, 0, 0, 0, 0, 0, 0, 0, 0<br/>0, 0, 0, 0, 0, 0, 0, 2, 0]>, fillcolor="#e5394d"] ;
433 -> 435 ;
436 [label=<entropy = 0.0<br/>samples = 725<br/>value = [725, 0, 0, 0, 0, 0, 0, 0, 0, 0, 0, 0, 0, 0<br/>0, 0, 0, 0, 0, 0, 0, 0, 0]>, fillcolor="#e58139"] ;
430 -> 436 ;
437 [label=<src_bytes &le; 0.0<br/>entropy = 1.888<br/>samples = 5710<br/>value = [0, 0, 0, 0, 0, 2471, 0, 0, 0, 0, 779, 392, 0<br/>0, 157, 5, 0, 20, 1886, 0, 0, 0, 0]>, fillcolor="#e8fbe1"] ;
93 -> 437 ;
438 [label=<dst_host_srv_diff_host_rate &le; 0.495<br/>entropy = 1.255<br/>samples = 3663<br/>value = [0, 0, 0, 0, 0, 2471, 0, 0, 0, 0, 779, 388, 0<br/>0, 0, 5, 0, 20, 0, 0, 0, 0, 0]>, fillcolor="#a8f08b"] ;
437 -> 438 ;
439 [label=<srv_diff_host_rate &le; 0.5<br/>entropy = 1.522<br/>samples = 1421<br/>value = [0, 0, 0, 0, 0, 239, 0, 0, 0, 0, 779, 380, 0<br/>0, 0, 3, 0, 20, 0, 0, 0, 0, 0]>, fillcolor="#b3f4f5"] ;
438 -> 439 ;
440 [label=<dst_host_count &le; 0.061<br/>entropy = 1.343<br/>samples = 636<br/>value = [0, 0, 0, 0, 0, 209, 0, 0, 0, 0, 24, 380, 0<br/>0, 0, 3, 0, 20, 0, 0, 0, 0, 0]>, fillcolor="#b0e1f5"] ;
439 -> 440 ;
441 [label=<dst_host_srv_diff_host_rate &le; 0.365<br/>entropy = 1.005<br/>samples = 260<br/>value = [0, 0, 0, 0, 0, 209, 0, 0, 0, 0, 23, 22, 0, 0<br/>0, 1, 0, 5, 0, 0, 0, 0, 0]>, fillcolor="#8aeb64"] ;
440 -> 441 ;
442 [label=<dst_host_srv_count &le; 0.033<br/>entropy = 0.772<br/>samples = 243<br/>value = [0, 0, 0, 0, 0, 209, 0, 0, 0, 0, 23, 5, 0, 0<br/>0, 1, 0, 5, 0, 0, 0, 0, 0]>, fillcolor="#81e958"] ;
441 -> 442 ;
443 [label=<difficulty &le; 0.833<br/>entropy = 1.818<br/>samples = 45<br/>value = [0, 0, 0, 0, 0, 23, 0, 0, 0, 0, 11, 5, 0, 0<br/>0, 1, 0, 5, 0, 0, 0, 0, 0]>, fillcolor="#caf6b9"] ;
442 -> 443 ;
444 [label=<dst_host_diff_srv_rate &le; 0.215<br/>entropy = 1.609<br/>samples = 41<br/>value = [0, 0, 0, 0, 0, 23, 0, 0, 0, 0, 11, 1, 0, 0<br/>0, 1, 0, 5, 0, 0, 0, 0, 0]>, fillcolor="#c3f5b0"] ;
443 -> 444 ;
445 [label=<dst_host_count &le; 0.006<br/>entropy = 1.391<br/>samples = 34<br/>value = [0, 0, 0, 0, 0, 23, 0, 0, 0, 0, 7, 1, 0, 0<br/>0, 1, 0, 2, 0, 0, 0, 0, 0]>, fillcolor="#a7f08a"] ;
444 -> 445 ;
446 [label=<difficulty &le; 0.405<br/>entropy = 1.88<br/>samples = 9<br/>value = [0, 0, 0, 0, 0, 5, 0, 0, 0, 0, 1, 1, 0, 0<br/>0, 1, 0, 1, 0, 0, 0, 0, 0]>, fillcolor="#b4f29c"] ;
445 -> 446 ;
447 [label=<difficulty &le; 0.31<br/>entropy = 1.5<br/>samples = 4<br/>value = [0, 0, 0, 0, 0, 2, 0, 0, 0, 0, 0, 0, 0, 0<br/>0, 1, 0, 1, 0, 0, 0, 0, 0]>, fillcolor="#cdf6bd"] ;
446 -> 447 ;
448 [label=<entropy = 1.0<br/>samples = 2<br/>value = [0, 0, 0, 0, 0, 1, 0, 0, 0, 0, 0, 0, 0, 0<br/>0, 1, 0, 0, 0, 0, 0, 0, 0]>, fillcolor="#ffffff"] ;
447 -> 448 ;
449 [label=<entropy = 1.0<br/>samples = 2<br/>value = [0, 0, 0, 0, 0, 1, 0, 0, 0, 0, 0, 0, 0, 0<br/>0, 0, 0, 1, 0, 0, 0, 0, 0]>, fillcolor="#ffffff"] ;
447 -> 449 ;
450 [label=<service_ecr_i &le; 0.5<br/>entropy = 1.371<br/>samples = 5<br/>value = [0, 0, 0, 0, 0, 3, 0, 0, 0, 0, 1, 1, 0, 0<br/>0, 0, 0, 0, 0, 0, 0, 0, 0]>, fillcolor="#b4f29c"] ;
446 -> 450 ;
451 [label=<difficulty &le; 0.548<br/>entropy = 0.811<br/>samples = 4<br/>value = [0, 0, 0, 0, 0, 3, 0, 0, 0, 0, 1, 0, 0, 0<br/>0, 0, 0, 0, 0, 0, 0, 0, 0]>, fillcolor="#9cee7b"] ;
450 -> 451 ;
452 [label=<entropy = 0.0<br/>samples = 1<br/>value = [0, 0, 0, 0, 0, 1, 0, 0, 0, 0, 0, 0, 0, 0<br/>0, 0, 0, 0, 0, 0, 0, 0, 0]>, fillcolor="#6ae539"] ;
451 -> 452 ;
453 [label=<difficulty &le; 0.643<br/>entropy = 0.918<br/>samples = 3<br/>value = [0, 0, 0, 0, 0, 2, 0, 0, 0, 0, 1, 0, 0, 0<br/>0, 0, 0, 0, 0, 0, 0, 0, 0]>, fillcolor="#b4f29c"] ;
451 -> 453 ;
454 [label=<entropy = 1.0<br/>samples = 2<br/>value = [0, 0, 0, 0, 0, 1, 0, 0, 0, 0, 1, 0, 0, 0<br/>0, 0, 0, 0, 0, 0, 0, 0, 0]>, fillcolor="#ffffff"] ;
453 -> 454 ;
455 [label=<entropy = 0.0<br/>samples = 1<br/>value = [0, 0, 0, 0, 0, 1, 0, 0, 0, 0, 0, 0, 0, 0<br/>0, 0, 0, 0, 0, 0, 0, 0, 0]>, fillcolor="#6ae539"] ;
453 -> 455 ;
456 [label=<entropy = 0.0<br/>samples = 1<br/>value = [0, 0, 0, 0, 0, 0, 0, 0, 0, 0, 0, 1, 0, 0<br/>0, 0, 0, 0, 0, 0, 0, 0, 0]>, fillcolor="#39b4e5"] ;
450 -> 456 ;
457 [label=<srv_count &le; 0.007<br/>entropy = 1.021<br/>samples = 25<br/>value = [0, 0, 0, 0, 0, 18, 0, 0, 0, 0, 6, 0, 0, 0<br/>0, 0, 0, 1, 0, 0, 0, 0, 0]>, fillcolor="#a1ef82"] ;
445 -> 457 ;
458 [label=<difficulty &le; 0.143<br/>entropy = 0.828<br/>samples = 23<br/>value = [0, 0, 0, 0, 0, 17, 0, 0, 0, 0, 6, 0, 0, 0<br/>0, 0, 0, 0, 0, 0, 0, 0, 0]>, fillcolor="#9fee7f"] ;
457 -> 458 ;
459 [label=<entropy = 0.0<br/>samples = 3<br/>value = [0, 0, 0, 0, 0, 3, 0, 0, 0, 0, 0, 0, 0, 0<br/>0, 0, 0, 0, 0, 0, 0, 0, 0]>, fillcolor="#6ae539"] ;
458 -> 459 ;
460 [label=<dst_host_count &le; 0.02<br/>entropy = 0.881<br/>samples = 20<br/>value = [0, 0, 0, 0, 0, 14, 0, 0, 0, 0, 6, 0, 0, 0<br/>0, 0, 0, 0, 0, 0, 0, 0, 0]>, fillcolor="#aaf08e"] ;
458 -> 460 ;
461 [label=<count &le; 0.005<br/>entropy = 0.831<br/>samples = 19<br/>value = [0, 0, 0, 0, 0, 14, 0, 0, 0, 0, 5, 0, 0, 0<br/>0, 0, 0, 0, 0, 0, 0, 0, 0]>, fillcolor="#9fee80"] ;
460 -> 461 ;
462 [label=<difficulty &le; 0.786<br/>entropy = 0.874<br/>samples = 17<br/>value = [0, 0, 0, 0, 0, 12, 0, 0, 0, 0, 5, 0, 0, 0<br/>0, 0, 0, 0, 0, 0, 0, 0, 0]>, fillcolor="#a8f08b"] ;
461 -> 462 ;
463 [label=<dst_host_srv_diff_host_rate &le; 0.165<br/>entropy = 0.918<br/>samples = 15<br/>value = [0, 0, 0, 0, 0, 10, 0, 0, 0, 0, 5, 0, 0, 0<br/>0, 0, 0, 0, 0, 0, 0, 0, 0]>, fillcolor="#b4f29c"] ;
462 -> 463 ;
464 [label=<difficulty &le; 0.643<br/>entropy = 0.863<br/>samples = 14<br/>value = [0, 0, 0, 0, 0, 10, 0, 0, 0, 0, 4, 0, 0, 0<br/>0, 0, 0, 0, 0, 0, 0, 0, 0]>, fillcolor="#a6ef88"] ;
463 -> 464 ;
465 [label=<dst_host_count &le; 0.014<br/>entropy = 0.918<br/>samples = 12<br/>value = [0, 0, 0, 0, 0, 8, 0, 0, 0, 0, 4, 0, 0, 0<br/>0, 0, 0, 0, 0, 0, 0, 0, 0]>, fillcolor="#b4f29c"] ;
464 -> 465 ;
466 [label=<difficulty &le; 0.31<br/>entropy = 0.811<br/>samples = 8<br/>value = [0, 0, 0, 0, 0, 6, 0, 0, 0, 0, 2, 0, 0, 0<br/>0, 0, 0, 0, 0, 0, 0, 0, 0]>, fillcolor="#9cee7b"] ;
465 -> 466 ;
467 [label=<srv_count &le; 0.003<br/>entropy = 0.971<br/>samples = 5<br/>value = [0, 0, 0, 0, 0, 3, 0, 0, 0, 0, 2, 0, 0, 0<br/>0, 0, 0, 0, 0, 0, 0, 0, 0]>, fillcolor="#cdf6bd"] ;
466 -> 467 ;
468 [label=<dst_host_srv_count &le; 0.01<br/>entropy = 0.918<br/>samples = 3<br/>value = [0, 0, 0, 0, 0, 2, 0, 0, 0, 0, 1, 0, 0, 0<br/>0, 0, 0, 0, 0, 0, 0, 0, 0]>, fillcolor="#b4f29c"] ;
467 -> 468 ;
469 [label=<entropy = 0.0<br/>samples = 1<br/>value = [0, 0, 0, 0, 0, 1, 0, 0, 0, 0, 0, 0, 0, 0<br/>0, 0, 0, 0, 0, 0, 0, 0, 0]>, fillcolor="#6ae539"] ;
468 -> 469 ;
470 [label=<entropy = 1.0<br/>samples = 2<br/>value = [0, 0, 0, 0, 0, 1, 0, 0, 0, 0, 1, 0, 0, 0<br/>0, 0, 0, 0, 0, 0, 0, 0, 0]>, fillcolor="#ffffff"] ;
468 -> 470 ;
471 [label=<dst_host_srv_count &le; 0.01<br/>entropy = 1.0<br/>samples = 2<br/>value = [0, 0, 0, 0, 0, 1, 0, 0, 0, 0, 1, 0, 0, 0<br/>0, 0, 0, 0, 0, 0, 0, 0, 0]>, fillcolor="#ffffff"] ;
467 -> 471 ;
472 [label=<entropy = 0.0<br/>samples = 1<br/>value = [0, 0, 0, 0, 0, 0, 0, 0, 0, 0, 1, 0, 0, 0<br/>0, 0, 0, 0, 0, 0, 0, 0, 0]>, fillcolor="#39e2e5"] ;
471 -> 472 ;
473 [label=<entropy = 0.0<br/>samples = 1<br/>value = [0, 0, 0, 0, 0, 1, 0, 0, 0, 0, 0, 0, 0, 0<br/>0, 0, 0, 0, 0, 0, 0, 0, 0]>, fillcolor="#6ae539"] ;
471 -> 473 ;
474 [label=<entropy = 0.0<br/>samples = 3<br/>value = [0, 0, 0, 0, 0, 3, 0, 0, 0, 0, 0, 0, 0, 0<br/>0, 0, 0, 0, 0, 0, 0, 0, 0]>, fillcolor="#6ae539"] ;
466 -> 474 ;
475 [label=<difficulty &le; 0.262<br/>entropy = 1.0<br/>samples = 4<br/>value = [0, 0, 0, 0, 0, 2, 0, 0, 0, 0, 2, 0, 0, 0<br/>0, 0, 0, 0, 0, 0, 0, 0, 0]>, fillcolor="#ffffff"] ;
465 -> 475 ;
476 [label=<entropy = 0.0<br/>samples = 1<br/>value = [0, 0, 0, 0, 0, 1, 0, 0, 0, 0, 0, 0, 0, 0<br/>0, 0, 0, 0, 0, 0, 0, 0, 0]>, fillcolor="#6ae539"] ;
475 -> 476 ;
477 [label=<difficulty &le; 0.31<br/>entropy = 0.918<br/>samples = 3<br/>value = [0, 0, 0, 0, 0, 1, 0, 0, 0, 0, 2, 0, 0, 0<br/>0, 0, 0, 0, 0, 0, 0, 0, 0]>, fillcolor="#9cf0f2"] ;
475 -> 477 ;
478 [label=<entropy = 0.0<br/>samples = 1<br/>value = [0, 0, 0, 0, 0, 0, 0, 0, 0, 0, 1, 0, 0, 0<br/>0, 0, 0, 0, 0, 0, 0, 0, 0]>, fillcolor="#39e2e5"] ;
477 -> 478 ;
479 [label=<service_eco_i &le; 0.5<br/>entropy = 1.0<br/>samples = 2<br/>value = [0, 0, 0, 0, 0, 1, 0, 0, 0, 0, 1, 0, 0, 0<br/>0, 0, 0, 0, 0, 0, 0, 0, 0]>, fillcolor="#ffffff"] ;
477 -> 479 ;
480 [label=<entropy = 0.0<br/>samples = 1<br/>value = [0, 0, 0, 0, 0, 1, 0, 0, 0, 0, 0, 0, 0, 0<br/>0, 0, 0, 0, 0, 0, 0, 0, 0]>, fillcolor="#6ae539"] ;
479 -> 480 ;
481 [label=<entropy = 0.0<br/>samples = 1<br/>value = [0, 0, 0, 0, 0, 0, 0, 0, 0, 0, 1, 0, 0, 0<br/>0, 0, 0, 0, 0, 0, 0, 0, 0]>, fillcolor="#39e2e5"] ;
479 -> 481 ;
482 [label=<entropy = 0.0<br/>samples = 2<br/>value = [0, 0, 0, 0, 0, 2, 0, 0, 0, 0, 0, 0, 0, 0<br/>0, 0, 0, 0, 0, 0, 0, 0, 0]>, fillcolor="#6ae539"] ;
464 -> 482 ;
483 [label=<entropy = 0.0<br/>samples = 1<br/>value = [0, 0, 0, 0, 0, 0, 0, 0, 0, 0, 1, 0, 0, 0<br/>0, 0, 0, 0, 0, 0, 0, 0, 0]>, fillcolor="#39e2e5"] ;
463 -> 483 ;
484 [label=<entropy = 0.0<br/>samples = 2<br/>value = [0, 0, 0, 0, 0, 2, 0, 0, 0, 0, 0, 0, 0, 0<br/>0, 0, 0, 0, 0, 0, 0, 0, 0]>, fillcolor="#6ae539"] ;
462 -> 484 ;
485 [label=<entropy = 0.0<br/>samples = 2<br/>value = [0, 0, 0, 0, 0, 2, 0, 0, 0, 0, 0, 0, 0, 0<br/>0, 0, 0, 0, 0, 0, 0, 0, 0]>, fillcolor="#6ae539"] ;
461 -> 485 ;
486 [label=<entropy = 0.0<br/>samples = 1<br/>value = [0, 0, 0, 0, 0, 0, 0, 0, 0, 0, 1, 0, 0, 0<br/>0, 0, 0, 0, 0, 0, 0, 0, 0]>, fillcolor="#39e2e5"] ;
460 -> 486 ;
487 [label=<entropy = 1.0<br/>samples = 2<br/>value = [0, 0, 0, 0, 0, 1, 0, 0, 0, 0, 0, 0, 0, 0<br/>0, 0, 0, 1, 0, 0, 0, 0, 0]>, fillcolor="#ffffff"] ;
457 -> 487 ;
488 [label=<difficulty &le; 0.143<br/>entropy = 0.985<br/>samples = 7<br/>value = [0, 0, 0, 0, 0, 0, 0, 0, 0, 0, 4, 0, 0, 0<br/>0, 0, 0, 3, 0, 0, 0, 0, 0]>, fillcolor="#cef8f8"] ;
444 -> 488 ;
489 [label=<entropy = 0.0<br/>samples = 3<br/>value = [0, 0, 0, 0, 0, 0, 0, 0, 0, 0, 0, 0, 0, 0<br/>0, 0, 0, 3, 0, 0, 0, 0, 0]>, fillcolor="#cb39e5"] ;
488 -> 489 ;
490 [label=<entropy = 0.0<br/>samples = 4<br/>value = [0, 0, 0, 0, 0, 0, 0, 0, 0, 0, 4, 0, 0, 0<br/>0, 0, 0, 0, 0, 0, 0, 0, 0]>, fillcolor="#39e2e5"] ;
488 -> 490 ;
491 [label=<entropy = 0.0<br/>samples = 4<br/>value = [0, 0, 0, 0, 0, 0, 0, 0, 0, 0, 0, 4, 0, 0<br/>0, 0, 0, 0, 0, 0, 0, 0, 0]>, fillcolor="#39b4e5"] ;
443 -> 491 ;
492 [label=<difficulty &le; 0.786<br/>entropy = 0.33<br/>samples = 198<br/>value = [0, 0, 0, 0, 0, 186, 0, 0, 0, 0, 12, 0, 0, 0<br/>0, 0, 0, 0, 0, 0, 0, 0, 0]>, fillcolor="#74e746"] ;
442 -> 492 ;
493 [label=<dst_host_srv_count &le; 0.308<br/>entropy = 0.439<br/>samples = 121<br/>value = [0, 0, 0, 0, 0, 110, 0, 0, 0, 0, 11, 0, 0, 0<br/>0, 0, 0, 0, 0, 0, 0, 0, 0]>, fillcolor="#79e84d"] ;
492 -> 493 ;
494 [label=<dst_host_srv_count &le; 0.122<br/>entropy = 0.996<br/>samples = 13<br/>value = [0, 0, 0, 0, 0, 7, 0, 0, 0, 0, 6, 0, 0, 0<br/>0, 0, 0, 0, 0, 0, 0, 0, 0]>, fillcolor="#eafbe3"] ;
493 -> 494 ;
495 [label=<dst_host_count &le; 0.006<br/>entropy = 0.544<br/>samples = 8<br/>value = [0, 0, 0, 0, 0, 7, 0, 0, 0, 0, 1, 0, 0, 0<br/>0, 0, 0, 0, 0, 0, 0, 0, 0]>, fillcolor="#7fe955"] ;
494 -> 495 ;
496 [label=<entropy = 0.0<br/>samples = 1<br/>value = [0, 0, 0, 0, 0, 0, 0, 0, 0, 0, 1, 0, 0, 0<br/>0, 0, 0, 0, 0, 0, 0, 0, 0]>, fillcolor="#39e2e5"] ;
495 -> 496 ;
497 [label=<entropy = 0.0<br/>samples = 7<br/>value = [0, 0, 0, 0, 0, 7, 0, 0, 0, 0, 0, 0, 0, 0<br/>0, 0, 0, 0, 0, 0, 0, 0, 0]>, fillcolor="#6ae539"] ;
495 -> 497 ;
498 [label=<entropy = 0.0<br/>samples = 5<br/>value = [0, 0, 0, 0, 0, 0, 0, 0, 0, 0, 5, 0, 0, 0<br/>0, 0, 0, 0, 0, 0, 0, 0, 0]>, fillcolor="#39e2e5"] ;
494 -> 498 ;
499 [label=<difficulty &le; 0.738<br/>entropy = 0.27<br/>samples = 108<br/>value = [0, 0, 0, 0, 0, 103, 0, 0, 0, 0, 5, 0, 0, 0<br/>0, 0, 0, 0, 0, 0, 0, 0, 0]>, fillcolor="#71e643"] ;
493 -> 499 ;
500 [label=<dst_host_srv_count &le; 0.473<br/>entropy = 0.375<br/>samples = 69<br/>value = [0, 0, 0, 0, 0, 64, 0, 0, 0, 0, 5, 0, 0, 0<br/>0, 0, 0, 0, 0, 0, 0, 0, 0]>, fillcolor="#76e748"] ;
499 -> 500 ;
501 [label=<dst_host_srv_count &le; 0.453<br/>entropy = 0.845<br/>samples = 11<br/>value = [0, 0, 0, 0, 0, 8, 0, 0, 0, 0, 3, 0, 0, 0<br/>0, 0, 0, 0, 0, 0, 0, 0, 0]>, fillcolor="#a2ef83"] ;
500 -> 501 ;
502 [label=<dst_host_srv_count &le; 0.396<br/>entropy = 0.503<br/>samples = 9<br/>value = [0, 0, 0, 0, 0, 8, 0, 0, 0, 0, 1, 0, 0, 0<br/>0, 0, 0, 0, 0, 0, 0, 0, 0]>, fillcolor="#7de852"] ;
501 -> 502 ;
503 [label=<entropy = 0.0<br/>samples = 1<br/>value = [0, 0, 0, 0, 0, 0, 0, 0, 0, 0, 1, 0, 0, 0<br/>0, 0, 0, 0, 0, 0, 0, 0, 0]>, fillcolor="#39e2e5"] ;
502 -> 503 ;
504 [label=<entropy = 0.0<br/>samples = 8<br/>value = [0, 0, 0, 0, 0, 8, 0, 0, 0, 0, 0, 0, 0, 0<br/>0, 0, 0, 0, 0, 0, 0, 0, 0]>, fillcolor="#6ae539"] ;
502 -> 504 ;
505 [label=<entropy = 0.0<br/>samples = 2<br/>value = [0, 0, 0, 0, 0, 0, 0, 0, 0, 0, 2, 0, 0, 0<br/>0, 0, 0, 0, 0, 0, 0, 0, 0]>, fillcolor="#39e2e5"] ;
501 -> 505 ;
506 [label=<dst_host_srv_diff_host_rate &le; 0.255<br/>entropy = 0.216<br/>samples = 58<br/>value = [0, 0, 0, 0, 0, 56, 0, 0, 0, 0, 2, 0, 0, 0<br/>0, 0, 0, 0, 0, 0, 0, 0, 0]>, fillcolor="#6fe640"] ;
500 -> 506 ;
507 [label=<dst_host_srv_count &le; 0.816<br/>entropy = 0.133<br/>samples = 54<br/>value = [0, 0, 0, 0, 0, 53, 0, 0, 0, 0, 1, 0, 0, 0<br/>0, 0, 0, 0, 0, 0, 0, 0, 0]>, fillcolor="#6de53d"] ;
506 -> 507 ;
508 [label=<entropy = 0.0<br/>samples = 27<br/>value = [0, 0, 0, 0, 0, 27, 0, 0, 0, 0, 0, 0, 0, 0<br/>0, 0, 0, 0, 0, 0, 0, 0, 0]>, fillcolor="#6ae539"] ;
507 -> 508 ;
509 [label=<dst_host_srv_count &le; 0.829<br/>entropy = 0.229<br/>samples = 27<br/>value = [0, 0, 0, 0, 0, 26, 0, 0, 0, 0, 1, 0, 0, 0<br/>0, 0, 0, 0, 0, 0, 0, 0, 0]>, fillcolor="#70e641"] ;
507 -> 509 ;
510 [label=<entropy = 1.0<br/>samples = 2<br/>value = [0, 0, 0, 0, 0, 1, 0, 0, 0, 0, 1, 0, 0, 0<br/>0, 0, 0, 0, 0, 0, 0, 0, 0]>, fillcolor="#ffffff"] ;
509 -> 510 ;
511 [label=<entropy = 0.0<br/>samples = 25<br/>value = [0, 0, 0, 0, 0, 25, 0, 0, 0, 0, 0, 0, 0, 0<br/>0, 0, 0, 0, 0, 0, 0, 0, 0]>, fillcolor="#6ae539"] ;
509 -> 511 ;
512 [label=<dst_host_srv_count &le; 0.553<br/>entropy = 0.811<br/>samples = 4<br/>value = [0, 0, 0, 0, 0, 3, 0, 0, 0, 0, 1, 0, 0, 0<br/>0, 0, 0, 0, 0, 0, 0, 0, 0]>, fillcolor="#9cee7b"] ;
506 -> 512 ;
513 [label=<entropy = 0.0<br/>samples = 3<br/>value = [0, 0, 0, 0, 0, 3, 0, 0, 0, 0, 0, 0, 0, 0<br/>0, 0, 0, 0, 0, 0, 0, 0, 0]>, fillcolor="#6ae539"] ;
512 -> 513 ;
514 [label=<entropy = 0.0<br/>samples = 1<br/>value = [0, 0, 0, 0, 0, 0, 0, 0, 0, 0, 1, 0, 0, 0<br/>0, 0, 0, 0, 0, 0, 0, 0, 0]>, fillcolor="#39e2e5"] ;
512 -> 514 ;
515 [label=<entropy = 0.0<br/>samples = 39<br/>value = [0, 0, 0, 0, 0, 39, 0, 0, 0, 0, 0, 0, 0, 0<br/>0, 0, 0, 0, 0, 0, 0, 0, 0]>, fillcolor="#6ae539"] ;
499 -> 515 ;
516 [label=<dst_host_srv_count &le; 0.998<br/>entropy = 0.1<br/>samples = 77<br/>value = [0, 0, 0, 0, 0, 76, 0, 0, 0, 0, 1, 0, 0, 0<br/>0, 0, 0, 0, 0, 0, 0, 0, 0]>, fillcolor="#6ce53c"] ;
492 -> 516 ;
517 [label=<entropy = 0.0<br/>samples = 73<br/>value = [0, 0, 0, 0, 0, 73, 0, 0, 0, 0, 0, 0, 0, 0<br/>0, 0, 0, 0, 0, 0, 0, 0, 0]>, fillcolor="#6ae539"] ;
516 -> 517 ;
518 [label=<dst_host_count &le; 0.01<br/>entropy = 0.811<br/>samples = 4<br/>value = [0, 0, 0, 0, 0, 3, 0, 0, 0, 0, 1, 0, 0, 0<br/>0, 0, 0, 0, 0, 0, 0, 0, 0]>, fillcolor="#9cee7b"] ;
516 -> 518 ;
519 [label=<entropy = 0.0<br/>samples = 2<br/>value = [0, 0, 0, 0, 0, 2, 0, 0, 0, 0, 0, 0, 0, 0<br/>0, 0, 0, 0, 0, 0, 0, 0, 0]>, fillcolor="#6ae539"] ;
518 -> 519 ;
520 [label=<entropy = 1.0<br/>samples = 2<br/>value = [0, 0, 0, 0, 0, 1, 0, 0, 0, 0, 1, 0, 0, 0<br/>0, 0, 0, 0, 0, 0, 0, 0, 0]>, fillcolor="#ffffff"] ;
518 -> 520 ;
521 [label=<entropy = 0.0<br/>samples = 17<br/>value = [0, 0, 0, 0, 0, 0, 0, 0, 0, 0, 0, 17, 0, 0<br/>0, 0, 0, 0, 0, 0, 0, 0, 0]>, fillcolor="#39b4e5"] ;
441 -> 521 ;
522 [label=<difficulty &le; 0.5<br/>entropy = 0.316<br/>samples = 376<br/>value = [0, 0, 0, 0, 0, 0, 0, 0, 0, 0, 1, 358, 0, 0<br/>0, 2, 0, 15, 0, 0, 0, 0, 0]>, fillcolor="#43b8e6"] ;
440 -> 522 ;
523 [label=<difficulty &le; 0.357<br/>entropy = 1.058<br/>samples = 19<br/>value = [0, 0, 0, 0, 0, 0, 0, 0, 0, 0, 1, 1, 0, 0<br/>0, 2, 0, 15, 0, 0, 0, 0, 0]>, fillcolor="#d768eb"] ;
522 -> 523 ;
524 [label=<entropy = 0.0<br/>samples = 15<br/>value = [0, 0, 0, 0, 0, 0, 0, 0, 0, 0, 0, 0, 0, 0<br/>0, 0, 0, 15, 0, 0, 0, 0, 0]>, fillcolor="#cb39e5"] ;
523 -> 524 ;
525 [label=<dst_host_serror_rate &le; 0.5<br/>entropy = 1.5<br/>samples = 4<br/>value = [0, 0, 0, 0, 0, 0, 0, 0, 0, 0, 1, 1, 0, 0<br/>0, 2, 0, 0, 0, 0, 0, 0, 0]>, fillcolor="#cfbdf6"] ;
523 -> 525 ;
526 [label=<entropy = 0.0<br/>samples = 1<br/>value = [0, 0, 0, 0, 0, 0, 0, 0, 0, 0, 0, 1, 0, 0<br/>0, 0, 0, 0, 0, 0, 0, 0, 0]>, fillcolor="#39b4e5"] ;
525 -> 526 ;
527 [label=<dst_host_same_src_port_rate &le; 0.22<br/>entropy = 0.918<br/>samples = 3<br/>value = [0, 0, 0, 0, 0, 0, 0, 0, 0, 0, 1, 0, 0, 0<br/>0, 2, 0, 0, 0, 0, 0, 0, 0]>, fillcolor="#b79cf2"] ;
525 -> 527 ;
528 [label=<entropy = 0.0<br/>samples = 2<br/>value = [0, 0, 0, 0, 0, 0, 0, 0, 0, 0, 0, 0, 0, 0<br/>0, 2, 0, 0, 0, 0, 0, 0, 0]>, fillcolor="#6f39e5"] ;
527 -> 528 ;
529 [label=<entropy = 0.0<br/>samples = 1<br/>value = [0, 0, 0, 0, 0, 0, 0, 0, 0, 0, 1, 0, 0, 0<br/>0, 0, 0, 0, 0, 0, 0, 0, 0]>, fillcolor="#39e2e5"] ;
527 -> 529 ;
530 [label=<entropy = 0.0<br/>samples = 357<br/>value = [0, 0, 0, 0, 0, 0, 0, 0, 0, 0, 0, 357, 0, 0<br/>0, 0, 0, 0, 0, 0, 0, 0, 0]>, fillcolor="#39b4e5"] ;
522 -> 530 ;
531 [label=<dst_host_srv_count &le; 0.01<br/>entropy = 0.234<br/>samples = 785<br/>value = [0, 0, 0, 0, 0, 30, 0, 0, 0, 0, 755, 0, 0, 0<br/>0, 0, 0, 0, 0, 0, 0, 0, 0]>, fillcolor="#41e3e6"] ;
439 -> 531 ;
532 [label=<srv_count &le; 0.089<br/>entropy = 0.629<br/>samples = 19<br/>value = [0, 0, 0, 0, 0, 16, 0, 0, 0, 0, 3, 0, 0, 0<br/>0, 0, 0, 0, 0, 0, 0, 0, 0]>, fillcolor="#86ea5e"] ;
531 -> 532 ;
533 [label=<srv_count &le; 0.017<br/>entropy = 0.779<br/>samples = 13<br/>value = [0, 0, 0, 0, 0, 10, 0, 0, 0, 0, 3, 0, 0, 0<br/>0, 0, 0, 0, 0, 0, 0, 0, 0]>, fillcolor="#97ed74"] ;
532 -> 533 ;
534 [label=<difficulty &le; 0.738<br/>entropy = 1.0<br/>samples = 2<br/>value = [0, 0, 0, 0, 0, 1, 0, 0, 0, 0, 1, 0, 0, 0<br/>0, 0, 0, 0, 0, 0, 0, 0, 0]>, fillcolor="#ffffff"] ;
533 -> 534 ;
535 [label=<entropy = 0.0<br/>samples = 1<br/>value = [0, 0, 0, 0, 0, 0, 0, 0, 0, 0, 1, 0, 0, 0<br/>0, 0, 0, 0, 0, 0, 0, 0, 0]>, fillcolor="#39e2e5"] ;
534 -> 535 ;
536 [label=<entropy = 0.0<br/>samples = 1<br/>value = [0, 0, 0, 0, 0, 1, 0, 0, 0, 0, 0, 0, 0, 0<br/>0, 0, 0, 0, 0, 0, 0, 0, 0]>, fillcolor="#6ae539"] ;
534 -> 536 ;
537 [label=<srv_count &le; 0.071<br/>entropy = 0.684<br/>samples = 11<br/>value = [0, 0, 0, 0, 0, 9, 0, 0, 0, 0, 2, 0, 0, 0<br/>0, 0, 0, 0, 0, 0, 0, 0, 0]>, fillcolor="#8beb65"] ;
533 -> 537 ;
538 [label=<entropy = 0.0<br/>samples = 5<br/>value = [0, 0, 0, 0, 0, 5, 0, 0, 0, 0, 0, 0, 0, 0<br/>0, 0, 0, 0, 0, 0, 0, 0, 0]>, fillcolor="#6ae539"] ;
537 -> 538 ;
